digraph Tree {
node [shape=box, style="filled, rounded", color="black", fontname=helvetica] ;
edge [fontname=helvetica] ;
0 [label=<bedrooms &le; 2.5<br/>gini = 0.367<br/>samples = 5123<br/>value = [3997, 760, 183, 183]<br/>class = P>, fillcolor="#e58139bd"] ;
1 [label=<bathrooms &le; 1.841<br/>gini = 0.141<br/>samples = 3673<br/>value = [3397, 230, 29, 17]<br/>class = P>, fillcolor="#e58139eb"] ;
0 -> 1 [labeldistance=2.5, labelangle=45, headlabel="True"] ;
2 [label=<review_scores_rating &le; 30.0<br/>gini = 0.065<br/>samples = 2903<br/>value = [2806, 82, 8, 7]<br/>class = P>, fillcolor="#e58139f6"] ;
1 -> 2 ;
3 [label=<gini = 0.0<br/>samples = 2<br/>value = [0, 2, 0, 0]<br/>class = r>, fillcolor="#47e539ff"] ;
2 -> 3 ;
4 [label=<reviews_per_month &le; 0.055<br/>gini = 0.064<br/>samples = 2901<br/>value = [2806, 80, 8, 7]<br/>class = P>, fillcolor="#e58139f6"] ;
2 -> 4 ;
5 [label=<reviews_per_month &le; 0.045<br/>gini = 0.332<br/>samples = 19<br/>value = [15, 4, 0, 0]<br/>class = P>, fillcolor="#e58139bb"] ;
4 -> 5 ;
6 [label=<gini = 0.0<br/>samples = 13<br/>value = [13, 0, 0, 0]<br/>class = P>, fillcolor="#e58139ff"] ;
5 -> 6 ;
7 [label=<transitTextWordsPerc &le; 0.947<br/>gini = 0.444<br/>samples = 6<br/>value = [2, 4, 0, 0]<br/>class = r>, fillcolor="#47e5397f"] ;
5 -> 7 ;
8 [label=<gini = 0.0<br/>samples = 4<br/>value = [0, 4, 0, 0]<br/>class = r>, fillcolor="#47e539ff"] ;
7 -> 8 ;
9 [label=<gini = 0.0<br/>samples = 2<br/>value = [2, 0, 0, 0]<br/>class = P>, fillcolor="#e58139ff"] ;
7 -> 9 ;
10 [label=<bedrooms &le; 1.5<br/>gini = 0.061<br/>samples = 2882<br/>value = [2791, 76, 8, 7]<br/>class = P>, fillcolor="#e58139f7"] ;
4 -> 10 ;
11 [label=<reviews_per_month &le; 1.652<br/>gini = 0.045<br/>samples = 2137<br/>value = [2088, 39, 3, 7]<br/>class = P>, fillcolor="#e58139f9"] ;
10 -> 11 ;
12 [label=<reviews_per_month &le; 1.18<br/>gini = 0.007<br/>samples = 915<br/>value = [912, 3, 0, 0]<br/>class = P>, fillcolor="#e58139fe"] ;
11 -> 12 ;
13 [label=<transitTextWordsPerc &le; 0.873<br/>gini = 0.003<br/>samples = 740<br/>value = [739, 1, 0, 0]<br/>class = P>, fillcolor="#e58139ff"] ;
12 -> 13 ;
14 [label=<transitTextWordsPerc &le; 0.872<br/>gini = 0.011<br/>samples = 181<br/>value = [180, 1, 0, 0]<br/>class = P>, fillcolor="#e58139fe"] ;
13 -> 14 ;
15 [label=<gini = 0.0<br/>samples = 173<br/>value = [173, 0, 0, 0]<br/>class = P>, fillcolor="#e58139ff"] ;
14 -> 15 ;
16 [label=<reviews_per_month &le; 0.52<br/>gini = 0.219<br/>samples = 8<br/>value = [7, 1, 0, 0]<br/>class = P>, fillcolor="#e58139db"] ;
14 -> 16 ;
17 [label=<gini = 0.0<br/>samples = 6<br/>value = [6, 0, 0, 0]<br/>class = P>, fillcolor="#e58139ff"] ;
16 -> 17 ;
18 [label=<reviews_per_month &le; 0.88<br/>gini = 0.5<br/>samples = 2<br/>value = [1, 1, 0, 0]<br/>class = P>, fillcolor="#e5813900"] ;
16 -> 18 ;
19 [label=<gini = 0.0<br/>samples = 1<br/>value = [0, 1, 0, 0]<br/>class = r>, fillcolor="#47e539ff"] ;
18 -> 19 ;
20 [label=<gini = 0.0<br/>samples = 1<br/>value = [1, 0, 0, 0]<br/>class = P>, fillcolor="#e58139ff"] ;
18 -> 20 ;
21 [label=<gini = 0.0<br/>samples = 559<br/>value = [559, 0, 0, 0]<br/>class = P>, fillcolor="#e58139ff"] ;
13 -> 21 ;
22 [label=<reviews_per_month &le; 1.195<br/>gini = 0.023<br/>samples = 175<br/>value = [173, 2, 0, 0]<br/>class = P>, fillcolor="#e58139fc"] ;
12 -> 22 ;
23 [label=<transitTextWordsPerc &le; 0.985<br/>gini = 0.48<br/>samples = 5<br/>value = [3, 2, 0, 0]<br/>class = P>, fillcolor="#e5813955"] ;
22 -> 23 ;
24 [label=<transitTextWordsPerc &le; 0.961<br/>gini = 0.444<br/>samples = 3<br/>value = [1, 2, 0, 0]<br/>class = r>, fillcolor="#47e5397f"] ;
23 -> 24 ;
25 [label=<gini = 0.0<br/>samples = 1<br/>value = [1, 0, 0, 0]<br/>class = P>, fillcolor="#e58139ff"] ;
24 -> 25 ;
26 [label=<gini = 0.0<br/>samples = 2<br/>value = [0, 2, 0, 0]<br/>class = r>, fillcolor="#47e539ff"] ;
24 -> 26 ;
27 [label=<gini = 0.0<br/>samples = 2<br/>value = [2, 0, 0, 0]<br/>class = P>, fillcolor="#e58139ff"] ;
23 -> 27 ;
28 [label=<gini = 0.0<br/>samples = 170<br/>value = [170, 0, 0, 0]<br/>class = P>, fillcolor="#e58139ff"] ;
22 -> 28 ;
29 [label=<square_feet &le; 1242.074<br/>gini = 0.073<br/>samples = 1222<br/>value = [1176, 36, 3, 7]<br/>class = P>, fillcolor="#e58139f5"] ;
11 -> 29 ;
30 [label=<reviews_per_month &le; 1.662<br/>gini = 0.07<br/>samples = 1217<br/>value = [1173, 34, 3, 7]<br/>class = P>, fillcolor="#e58139f6"] ;
29 -> 30 ;
31 [label=<transitTextWordsPerc &le; 0.702<br/>gini = 0.147<br/>samples = 384<br/>value = [354, 20, 3, 7]<br/>class = P>, fillcolor="#e58139ea"] ;
30 -> 31 ;
32 [label=<transitTextWordsPerc &le; 0.691<br/>gini = 0.611<br/>samples = 6<br/>value = [2, 3, 0, 1]<br/>class = r>, fillcolor="#47e53940"] ;
31 -> 32 ;
33 [label=<gini = 0.0<br/>samples = 2<br/>value = [2, 0, 0, 0]<br/>class = P>, fillcolor="#e58139ff"] ;
32 -> 33 ;
34 [label=<transitTextWordsPerc &le; 0.697<br/>gini = 0.375<br/>samples = 4<br/>value = [0, 3, 0, 1]<br/>class = r>, fillcolor="#47e539aa"] ;
32 -> 34 ;
35 [label=<gini = 0.0<br/>samples = 3<br/>value = [0, 3, 0, 0]<br/>class = r>, fillcolor="#47e539ff"] ;
34 -> 35 ;
36 [label=<gini = 0.0<br/>samples = 1<br/>value = [0, 0, 0, 1]<br/>class = c>, fillcolor="#d739e5ff"] ;
34 -> 36 ;
37 [label=<bathrooms &le; 1.25<br/>gini = 0.13<br/>samples = 378<br/>value = [352, 17, 3, 6]<br/>class = P>, fillcolor="#e58139ed"] ;
31 -> 37 ;
38 [label=<transitTextWordsPerc &le; 0.935<br/>gini = 0.119<br/>samples = 370<br/>value = [347, 14, 3, 6]<br/>class = P>, fillcolor="#e58139ef"] ;
37 -> 38 ;
39 [label=<transitTextWordsPerc &le; 0.779<br/>gini = 0.053<br/>samples = 148<br/>value = [144, 4, 0, 0]<br/>class = P>, fillcolor="#e58139f8"] ;
38 -> 39 ;
40 [label=<transitTextWordsPerc &le; 0.738<br/>gini = 0.375<br/>samples = 4<br/>value = [3, 1, 0, 0]<br/>class = P>, fillcolor="#e58139aa"] ;
39 -> 40 ;
41 [label=<gini = 0.0<br/>samples = 3<br/>value = [3, 0, 0, 0]<br/>class = P>, fillcolor="#e58139ff"] ;
40 -> 41 ;
42 [label=<gini = 0.0<br/>samples = 1<br/>value = [0, 1, 0, 0]<br/>class = r>, fillcolor="#47e539ff"] ;
40 -> 42 ;
43 [label=<transitTextWordsPerc &le; 0.894<br/>gini = 0.041<br/>samples = 144<br/>value = [141, 3, 0, 0]<br/>class = P>, fillcolor="#e58139fa"] ;
39 -> 43 ;
44 [label=<gini = 0.0<br/>samples = 77<br/>value = [77, 0, 0, 0]<br/>class = P>, fillcolor="#e58139ff"] ;
43 -> 44 ;
45 [label=<transitTextWordsPerc &le; 0.895<br/>gini = 0.086<br/>samples = 67<br/>value = [64, 3, 0, 0]<br/>class = P>, fillcolor="#e58139f3"] ;
43 -> 45 ;
46 [label=<gini = 0.0<br/>samples = 3<br/>value = [0, 3, 0, 0]<br/>class = r>, fillcolor="#47e539ff"] ;
45 -> 46 ;
47 [label=<gini = 0.0<br/>samples = 64<br/>value = [64, 0, 0, 0]<br/>class = P>, fillcolor="#e58139ff"] ;
45 -> 47 ;
48 [label=<transitTextWordsPerc &le; 0.939<br/>gini = 0.161<br/>samples = 222<br/>value = [203, 10, 3, 6]<br/>class = P>, fillcolor="#e58139e8"] ;
38 -> 48 ;
49 [label=<bedrooms &le; 0.5<br/>gini = 0.48<br/>samples = 5<br/>value = [3, 2, 0, 0]<br/>class = P>, fillcolor="#e5813955"] ;
48 -> 49 ;
50 [label=<gini = 0.0<br/>samples = 1<br/>value = [1, 0, 0, 0]<br/>class = P>, fillcolor="#e58139ff"] ;
49 -> 50 ;
51 [label=<gini = 0.5<br/>samples = 4<br/>value = [2, 2, 0, 0]<br/>class = P>, fillcolor="#e5813900"] ;
49 -> 51 ;
52 [label=<bedrooms &le; 0.5<br/>gini = 0.148<br/>samples = 217<br/>value = [200, 8, 3, 6]<br/>class = P>, fillcolor="#e58139ea"] ;
48 -> 52 ;
53 [label=<transitTextWordsPerc &le; 0.972<br/>gini = 0.219<br/>samples = 56<br/>value = [49, 7, 0, 0]<br/>class = P>, fillcolor="#e58139db"] ;
52 -> 53 ;
54 [label=<gini = 0.0<br/>samples = 7<br/>value = [7, 0, 0, 0]<br/>class = P>, fillcolor="#e58139ff"] ;
53 -> 54 ;
55 [label=<gini = 0.245<br/>samples = 49<br/>value = [42, 7, 0, 0]<br/>class = P>, fillcolor="#e58139d4"] ;
53 -> 55 ;
56 [label=<transitTextWordsPerc &le; 0.985<br/>gini = 0.119<br/>samples = 161<br/>value = [151, 1, 3, 6]<br/>class = P>, fillcolor="#e58139ef"] ;
52 -> 56 ;
57 [label=<gini = 0.0<br/>samples = 8<br/>value = [8, 0, 0, 0]<br/>class = P>, fillcolor="#e58139ff"] ;
56 -> 57 ;
58 [label=<square_feet &le; 1092.074<br/>gini = 0.124<br/>samples = 153<br/>value = [143, 1, 3, 6]<br/>class = P>, fillcolor="#e58139ee"] ;
56 -> 58 ;
59 [label=<gini = 0.0<br/>samples = 1<br/>value = [1, 0, 0, 0]<br/>class = P>, fillcolor="#e58139ff"] ;
58 -> 59 ;
60 [label=<gini = 0.125<br/>samples = 152<br/>value = [142, 1, 3, 6]<br/>class = P>, fillcolor="#e58139ee"] ;
58 -> 60 ;
61 [label=<transitTextWordsPerc &le; 0.95<br/>gini = 0.469<br/>samples = 8<br/>value = [5, 3, 0, 0]<br/>class = P>, fillcolor="#e5813966"] ;
37 -> 61 ;
62 [label=<gini = 0.0<br/>samples = 3<br/>value = [3, 0, 0, 0]<br/>class = P>, fillcolor="#e58139ff"] ;
61 -> 62 ;
63 [label=<gini = 0.48<br/>samples = 5<br/>value = [2, 3, 0, 0]<br/>class = r>, fillcolor="#47e53955"] ;
61 -> 63 ;
64 [label=<square_feet &le; 525.0<br/>gini = 0.033<br/>samples = 833<br/>value = [819, 14, 0, 0]<br/>class = P>, fillcolor="#e58139fb"] ;
30 -> 64 ;
65 [label=<reviews_per_month &le; 5.675<br/>gini = 0.278<br/>samples = 6<br/>value = [5, 1, 0, 0]<br/>class = P>, fillcolor="#e58139cc"] ;
64 -> 65 ;
66 [label=<gini = 0.0<br/>samples = 3<br/>value = [3, 0, 0, 0]<br/>class = P>, fillcolor="#e58139ff"] ;
65 -> 66 ;
67 [label=<gini = 0.444<br/>samples = 3<br/>value = [2, 1, 0, 0]<br/>class = P>, fillcolor="#e581397f"] ;
65 -> 67 ;
68 [label=<transitTextWordsPerc &le; 0.926<br/>gini = 0.031<br/>samples = 827<br/>value = [814, 13, 0, 0]<br/>class = P>, fillcolor="#e58139fb"] ;
64 -> 68 ;
69 [label=<transitTextWordsPerc &le; 0.865<br/>gini = 0.013<br/>samples = 468<br/>value = [465, 3, 0, 0]<br/>class = P>, fillcolor="#e58139fd"] ;
68 -> 69 ;
70 [label=<transitTextWordsPerc &le; 0.864<br/>gini = 0.032<br/>samples = 186<br/>value = [183, 3, 0, 0]<br/>class = P>, fillcolor="#e58139fb"] ;
69 -> 70 ;
71 [label=<reviews_per_month &le; 3.64<br/>gini = 0.021<br/>samples = 185<br/>value = [183, 2, 0, 0]<br/>class = P>, fillcolor="#e58139fc"] ;
70 -> 71 ;
72 [label=<gini = 0.0<br/>samples = 97<br/>value = [97, 0, 0, 0]<br/>class = P>, fillcolor="#e58139ff"] ;
71 -> 72 ;
73 [label=<reviews_per_month &le; 3.86<br/>gini = 0.044<br/>samples = 88<br/>value = [86, 2, 0, 0]<br/>class = P>, fillcolor="#e58139f9"] ;
71 -> 73 ;
74 [label=<transitTextWordsPerc &le; 0.836<br/>gini = 0.375<br/>samples = 4<br/>value = [3, 1, 0, 0]<br/>class = P>, fillcolor="#e58139aa"] ;
73 -> 74 ;
75 [label=<gini = 0.0<br/>samples = 1<br/>value = [0, 1, 0, 0]<br/>class = r>, fillcolor="#47e539ff"] ;
74 -> 75 ;
76 [label=<gini = 0.0<br/>samples = 3<br/>value = [3, 0, 0, 0]<br/>class = P>, fillcolor="#e58139ff"] ;
74 -> 76 ;
77 [label=<transitTextWordsPerc &le; 0.849<br/>gini = 0.024<br/>samples = 84<br/>value = [83, 1, 0, 0]<br/>class = P>, fillcolor="#e58139fc"] ;
73 -> 77 ;
78 [label=<gini = 0.0<br/>samples = 55<br/>value = [55, 0, 0, 0]<br/>class = P>, fillcolor="#e58139ff"] ;
77 -> 78 ;
79 [label=<transitTextWordsPerc &le; 0.851<br/>gini = 0.067<br/>samples = 29<br/>value = [28, 1, 0, 0]<br/>class = P>, fillcolor="#e58139f6"] ;
77 -> 79 ;
80 [label=<reviews_per_month &le; 4.62<br/>gini = 0.5<br/>samples = 2<br/>value = [1, 1, 0, 0]<br/>class = P>, fillcolor="#e5813900"] ;
79 -> 80 ;
81 [label=<gini = 0.0<br/>samples = 1<br/>value = [1, 0, 0, 0]<br/>class = P>, fillcolor="#e58139ff"] ;
80 -> 81 ;
82 [label=<gini = 0.0<br/>samples = 1<br/>value = [0, 1, 0, 0]<br/>class = r>, fillcolor="#47e539ff"] ;
80 -> 82 ;
83 [label=<gini = 0.0<br/>samples = 27<br/>value = [27, 0, 0, 0]<br/>class = P>, fillcolor="#e58139ff"] ;
79 -> 83 ;
84 [label=<gini = 0.0<br/>samples = 1<br/>value = [0, 1, 0, 0]<br/>class = r>, fillcolor="#47e539ff"] ;
70 -> 84 ;
85 [label=<gini = 0.0<br/>samples = 282<br/>value = [282, 0, 0, 0]<br/>class = P>, fillcolor="#e58139ff"] ;
69 -> 85 ;
86 [label=<transitTextWordsPerc &le; 0.927<br/>gini = 0.054<br/>samples = 359<br/>value = [349, 10, 0, 0]<br/>class = P>, fillcolor="#e58139f8"] ;
68 -> 86 ;
87 [label=<gini = 0.0<br/>samples = 2<br/>value = [0, 2, 0, 0]<br/>class = r>, fillcolor="#47e539ff"] ;
86 -> 87 ;
88 [label=<review_scores_rating &le; 96.5<br/>gini = 0.044<br/>samples = 357<br/>value = [349, 8, 0, 0]<br/>class = P>, fillcolor="#e58139f9"] ;
86 -> 88 ;
89 [label=<gini = 0.0<br/>samples = 206<br/>value = [206, 0, 0, 0]<br/>class = P>, fillcolor="#e58139ff"] ;
88 -> 89 ;
90 [label=<reviews_per_month &le; 3.675<br/>gini = 0.1<br/>samples = 151<br/>value = [143, 8, 0, 0]<br/>class = P>, fillcolor="#e58139f1"] ;
88 -> 90 ;
91 [label=<reviews_per_month &le; 3.61<br/>gini = 0.159<br/>samples = 92<br/>value = [84, 8, 0, 0]<br/>class = P>, fillcolor="#e58139e7"] ;
90 -> 91 ;
92 [label=<reviews_per_month &le; 3.19<br/>gini = 0.106<br/>samples = 89<br/>value = [84, 5, 0, 0]<br/>class = P>, fillcolor="#e58139f0"] ;
91 -> 92 ;
93 [label=<reviews_per_month &le; 2.01<br/>gini = 0.049<br/>samples = 79<br/>value = [77, 2, 0, 0]<br/>class = P>, fillcolor="#e58139f8"] ;
92 -> 93 ;
94 [label=<reviews_per_month &le; 1.99<br/>gini = 0.153<br/>samples = 24<br/>value = [22, 2, 0, 0]<br/>class = P>, fillcolor="#e58139e8"] ;
93 -> 94 ;
95 [label=<gini = 0.0<br/>samples = 14<br/>value = [14, 0, 0, 0]<br/>class = P>, fillcolor="#e58139ff"] ;
94 -> 95 ;
96 [label=<bedrooms &le; 0.5<br/>gini = 0.32<br/>samples = 10<br/>value = [8, 2, 0, 0]<br/>class = P>, fillcolor="#e58139bf"] ;
94 -> 96 ;
97 [label=<gini = 0.0<br/>samples = 3<br/>value = [3, 0, 0, 0]<br/>class = P>, fillcolor="#e58139ff"] ;
96 -> 97 ;
98 [label=<gini = 0.408<br/>samples = 7<br/>value = [5, 2, 0, 0]<br/>class = P>, fillcolor="#e5813999"] ;
96 -> 98 ;
99 [label=<gini = 0.0<br/>samples = 55<br/>value = [55, 0, 0, 0]<br/>class = P>, fillcolor="#e58139ff"] ;
93 -> 99 ;
100 [label=<reviews_per_month &le; 3.275<br/>gini = 0.42<br/>samples = 10<br/>value = [7, 3, 0, 0]<br/>class = P>, fillcolor="#e5813992"] ;
92 -> 100 ;
101 [label=<review_scores_rating &le; 98.5<br/>gini = 0.375<br/>samples = 4<br/>value = [1, 3, 0, 0]<br/>class = r>, fillcolor="#47e539aa"] ;
100 -> 101 ;
102 [label=<gini = 0.0<br/>samples = 1<br/>value = [1, 0, 0, 0]<br/>class = P>, fillcolor="#e58139ff"] ;
101 -> 102 ;
103 [label=<gini = 0.0<br/>samples = 3<br/>value = [0, 3, 0, 0]<br/>class = r>, fillcolor="#47e539ff"] ;
101 -> 103 ;
104 [label=<gini = 0.0<br/>samples = 6<br/>value = [6, 0, 0, 0]<br/>class = P>, fillcolor="#e58139ff"] ;
100 -> 104 ;
105 [label=<gini = 0.0<br/>samples = 3<br/>value = [0, 3, 0, 0]<br/>class = r>, fillcolor="#47e539ff"] ;
91 -> 105 ;
106 [label=<gini = 0.0<br/>samples = 59<br/>value = [59, 0, 0, 0]<br/>class = P>, fillcolor="#e58139ff"] ;
90 -> 106 ;
107 [label=<reviews_per_month &le; 2.84<br/>gini = 0.48<br/>samples = 5<br/>value = [3, 2, 0, 0]<br/>class = P>, fillcolor="#e5813955"] ;
29 -> 107 ;
108 [label=<gini = 0.0<br/>samples = 2<br/>value = [0, 2, 0, 0]<br/>class = r>, fillcolor="#47e539ff"] ;
107 -> 108 ;
109 [label=<gini = 0.0<br/>samples = 3<br/>value = [3, 0, 0, 0]<br/>class = P>, fillcolor="#e58139ff"] ;
107 -> 109 ;
110 [label=<reviews_per_month &le; 2.635<br/>gini = 0.107<br/>samples = 745<br/>value = [703, 37, 5, 0]<br/>class = P>, fillcolor="#e58139f0"] ;
10 -> 110 ;
111 [label=<reviews_per_month &le; 2.575<br/>gini = 0.127<br/>samples = 619<br/>value = [577, 37, 5, 0]<br/>class = P>, fillcolor="#e58139ed"] ;
110 -> 111 ;
112 [label=<reviews_per_month &le; 0.445<br/>gini = 0.115<br/>samples = 608<br/>value = [571, 32, 5, 0]<br/>class = P>, fillcolor="#e58139ef"] ;
111 -> 112 ;
113 [label=<transitTextWordsPerc &le; 0.904<br/>gini = 0.015<br/>samples = 136<br/>value = [135, 1, 0, 0]<br/>class = P>, fillcolor="#e58139fd"] ;
112 -> 113 ;
114 [label=<transitTextWordsPerc &le; 0.902<br/>gini = 0.041<br/>samples = 48<br/>value = [47, 1, 0, 0]<br/>class = P>, fillcolor="#e58139fa"] ;
113 -> 114 ;
115 [label=<gini = 0.0<br/>samples = 47<br/>value = [47, 0, 0, 0]<br/>class = P>, fillcolor="#e58139ff"] ;
114 -> 115 ;
116 [label=<gini = 0.0<br/>samples = 1<br/>value = [0, 1, 0, 0]<br/>class = r>, fillcolor="#47e539ff"] ;
114 -> 116 ;
117 [label=<gini = 0.0<br/>samples = 88<br/>value = [88, 0, 0, 0]<br/>class = P>, fillcolor="#e58139ff"] ;
113 -> 117 ;
118 [label=<reviews_per_month &le; 0.465<br/>gini = 0.142<br/>samples = 472<br/>value = [436, 31, 5, 0]<br/>class = P>, fillcolor="#e58139ea"] ;
112 -> 118 ;
119 [label=<transitTextWordsPerc &le; 0.867<br/>gini = 0.5<br/>samples = 4<br/>value = [0, 2, 2, 0]<br/>class = r>, fillcolor="#47e53900"] ;
118 -> 119 ;
120 [label=<gini = 0.0<br/>samples = 2<br/>value = [0, 0, 2, 0]<br/>class = i>, fillcolor="#399de5ff"] ;
119 -> 120 ;
121 [label=<gini = 0.0<br/>samples = 2<br/>value = [0, 2, 0, 0]<br/>class = r>, fillcolor="#47e539ff"] ;
119 -> 121 ;
122 [label=<square_feet &le; 875.0<br/>gini = 0.128<br/>samples = 468<br/>value = [436, 29, 3, 0]<br/>class = P>, fillcolor="#e58139ec"] ;
118 -> 122 ;
123 [label=<gini = 0.0<br/>samples = 1<br/>value = [0, 1, 0, 0]<br/>class = r>, fillcolor="#47e539ff"] ;
122 -> 123 ;
124 [label=<transitTextWordsPerc &le; 0.881<br/>gini = 0.125<br/>samples = 467<br/>value = [436, 28, 3, 0]<br/>class = P>, fillcolor="#e58139ed"] ;
122 -> 124 ;
125 [label=<transitTextWordsPerc &le; 0.879<br/>gini = 0.219<br/>samples = 131<br/>value = [115, 13, 3, 0]<br/>class = P>, fillcolor="#e58139dc"] ;
124 -> 125 ;
126 [label=<review_scores_rating &le; 94.5<br/>gini = 0.182<br/>samples = 128<br/>value = [115, 13, 0, 0]<br/>class = P>, fillcolor="#e58139e2"] ;
125 -> 126 ;
127 [label=<transitTextWordsPerc &le; 0.83<br/>gini = 0.267<br/>samples = 82<br/>value = [69, 13, 0, 0]<br/>class = P>, fillcolor="#e58139cf"] ;
126 -> 127 ;
128 [label=<gini = 0.0<br/>samples = 29<br/>value = [29, 0, 0, 0]<br/>class = P>, fillcolor="#e58139ff"] ;
127 -> 128 ;
129 [label=<transitTextWordsPerc &le; 0.838<br/>gini = 0.37<br/>samples = 53<br/>value = [40, 13, 0, 0]<br/>class = P>, fillcolor="#e58139ac"] ;
127 -> 129 ;
130 [label=<review_scores_rating &le; 92.86<br/>gini = 0.375<br/>samples = 4<br/>value = [1, 3, 0, 0]<br/>class = r>, fillcolor="#47e539aa"] ;
129 -> 130 ;
131 [label=<gini = 0.0<br/>samples = 1<br/>value = [1, 0, 0, 0]<br/>class = P>, fillcolor="#e58139ff"] ;
130 -> 131 ;
132 [label=<gini = 0.0<br/>samples = 3<br/>value = [0, 3, 0, 0]<br/>class = r>, fillcolor="#47e539ff"] ;
130 -> 132 ;
133 [label=<reviews_per_month &le; 1.345<br/>gini = 0.325<br/>samples = 49<br/>value = [39, 10, 0, 0]<br/>class = P>, fillcolor="#e58139be"] ;
129 -> 133 ;
134 [label=<reviews_per_month &le; 0.655<br/>gini = 0.494<br/>samples = 9<br/>value = [4, 5, 0, 0]<br/>class = r>, fillcolor="#47e53933"] ;
133 -> 134 ;
135 [label=<gini = 0.0<br/>samples = 4<br/>value = [4, 0, 0, 0]<br/>class = P>, fillcolor="#e58139ff"] ;
134 -> 135 ;
136 [label=<gini = 0.0<br/>samples = 5<br/>value = [0, 5, 0, 0]<br/>class = r>, fillcolor="#47e539ff"] ;
134 -> 136 ;
137 [label=<transitTextWordsPerc &le; 0.854<br/>gini = 0.219<br/>samples = 40<br/>value = [35, 5, 0, 0]<br/>class = P>, fillcolor="#e58139db"] ;
133 -> 137 ;
138 [label=<gini = 0.0<br/>samples = 11<br/>value = [11, 0, 0, 0]<br/>class = P>, fillcolor="#e58139ff"] ;
137 -> 138 ;
139 [label=<transitTextWordsPerc &le; 0.874<br/>gini = 0.285<br/>samples = 29<br/>value = [24, 5, 0, 0]<br/>class = P>, fillcolor="#e58139ca"] ;
137 -> 139 ;
140 [label=<review_scores_rating &le; 93.86<br/>gini = 0.33<br/>samples = 24<br/>value = [19, 5, 0, 0]<br/>class = P>, fillcolor="#e58139bc"] ;
139 -> 140 ;
141 [label=<transitTextWordsPerc &le; 0.862<br/>gini = 0.351<br/>samples = 22<br/>value = [17, 5, 0, 0]<br/>class = P>, fillcolor="#e58139b4"] ;
140 -> 141 ;
142 [label=<gini = 0.48<br/>samples = 5<br/>value = [3, 2, 0, 0]<br/>class = P>, fillcolor="#e5813955"] ;
141 -> 142 ;
143 [label=<transitTextWordsPerc &le; 0.87<br/>gini = 0.291<br/>samples = 17<br/>value = [14, 3, 0, 0]<br/>class = P>, fillcolor="#e58139c8"] ;
141 -> 143 ;
144 [label=<gini = 0.0<br/>samples = 2<br/>value = [2, 0, 0, 0]<br/>class = P>, fillcolor="#e58139ff"] ;
143 -> 144 ;
145 [label=<gini = 0.32<br/>samples = 15<br/>value = [12, 3, 0, 0]<br/>class = P>, fillcolor="#e58139bf"] ;
143 -> 145 ;
146 [label=<gini = 0.0<br/>samples = 2<br/>value = [2, 0, 0, 0]<br/>class = P>, fillcolor="#e58139ff"] ;
140 -> 146 ;
147 [label=<gini = 0.0<br/>samples = 5<br/>value = [5, 0, 0, 0]<br/>class = P>, fillcolor="#e58139ff"] ;
139 -> 147 ;
148 [label=<gini = 0.0<br/>samples = 46<br/>value = [46, 0, 0, 0]<br/>class = P>, fillcolor="#e58139ff"] ;
126 -> 148 ;
149 [label=<gini = 0.0<br/>samples = 3<br/>value = [0, 0, 3, 0]<br/>class = i>, fillcolor="#399de5ff"] ;
125 -> 149 ;
150 [label=<review_scores_rating &le; 93.36<br/>gini = 0.085<br/>samples = 336<br/>value = [321, 15, 0, 0]<br/>class = P>, fillcolor="#e58139f3"] ;
124 -> 150 ;
151 [label=<gini = 0.0<br/>samples = 92<br/>value = [92, 0, 0, 0]<br/>class = P>, fillcolor="#e58139ff"] ;
150 -> 151 ;
152 [label=<reviews_per_month &le; 0.535<br/>gini = 0.115<br/>samples = 244<br/>value = [229, 15, 0, 0]<br/>class = P>, fillcolor="#e58139ee"] ;
150 -> 152 ;
153 [label=<reviews_per_month &le; 0.505<br/>gini = 0.346<br/>samples = 9<br/>value = [7, 2, 0, 0]<br/>class = P>, fillcolor="#e58139b6"] ;
152 -> 153 ;
154 [label=<gini = 0.0<br/>samples = 5<br/>value = [5, 0, 0, 0]<br/>class = P>, fillcolor="#e58139ff"] ;
153 -> 154 ;
155 [label=<gini = 0.5<br/>samples = 4<br/>value = [2, 2, 0, 0]<br/>class = P>, fillcolor="#e5813900"] ;
153 -> 155 ;
156 [label=<transitTextWordsPerc &le; 0.908<br/>gini = 0.105<br/>samples = 235<br/>value = [222, 13, 0, 0]<br/>class = P>, fillcolor="#e58139f0"] ;
152 -> 156 ;
157 [label=<gini = 0.0<br/>samples = 42<br/>value = [42, 0, 0, 0]<br/>class = P>, fillcolor="#e58139ff"] ;
156 -> 157 ;
158 [label=<transitTextWordsPerc &le; 0.915<br/>gini = 0.126<br/>samples = 193<br/>value = [180, 13, 0, 0]<br/>class = P>, fillcolor="#e58139ed"] ;
156 -> 158 ;
159 [label=<transitTextWordsPerc &le; 0.914<br/>gini = 0.42<br/>samples = 10<br/>value = [7, 3, 0, 0]<br/>class = P>, fillcolor="#e5813992"] ;
158 -> 159 ;
160 [label=<reviews_per_month &le; 1.17<br/>gini = 0.219<br/>samples = 8<br/>value = [7, 1, 0, 0]<br/>class = P>, fillcolor="#e58139db"] ;
159 -> 160 ;
161 [label=<gini = 0.0<br/>samples = 1<br/>value = [0, 1, 0, 0]<br/>class = r>, fillcolor="#47e539ff"] ;
160 -> 161 ;
162 [label=<gini = 0.0<br/>samples = 7<br/>value = [7, 0, 0, 0]<br/>class = P>, fillcolor="#e58139ff"] ;
160 -> 162 ;
163 [label=<gini = 0.0<br/>samples = 2<br/>value = [0, 2, 0, 0]<br/>class = r>, fillcolor="#47e539ff"] ;
159 -> 163 ;
164 [label=<review_scores_rating &le; 93.86<br/>gini = 0.103<br/>samples = 183<br/>value = [173, 10, 0, 0]<br/>class = P>, fillcolor="#e58139f0"] ;
158 -> 164 ;
165 [label=<transitTextWordsPerc &le; 0.973<br/>gini = 0.165<br/>samples = 99<br/>value = [90, 9, 0, 0]<br/>class = P>, fillcolor="#e58139e6"] ;
164 -> 165 ;
166 [label=<gini = 0.0<br/>samples = 21<br/>value = [21, 0, 0, 0]<br/>class = P>, fillcolor="#e58139ff"] ;
165 -> 166 ;
167 [label=<bathrooms &le; 1.25<br/>gini = 0.204<br/>samples = 78<br/>value = [69, 9, 0, 0]<br/>class = P>, fillcolor="#e58139de"] ;
165 -> 167 ;
168 [label=<gini = 0.198<br/>samples = 63<br/>value = [56, 7, 0, 0]<br/>class = P>, fillcolor="#e58139df"] ;
167 -> 168 ;
169 [label=<gini = 0.231<br/>samples = 15<br/>value = [13, 2, 0, 0]<br/>class = P>, fillcolor="#e58139d8"] ;
167 -> 169 ;
170 [label=<review_scores_rating &le; 99.5<br/>gini = 0.024<br/>samples = 84<br/>value = [83, 1, 0, 0]<br/>class = P>, fillcolor="#e58139fc"] ;
164 -> 170 ;
171 [label=<gini = 0.0<br/>samples = 61<br/>value = [61, 0, 0, 0]<br/>class = P>, fillcolor="#e58139ff"] ;
170 -> 171 ;
172 [label=<reviews_per_month &le; 0.905<br/>gini = 0.083<br/>samples = 23<br/>value = [22, 1, 0, 0]<br/>class = P>, fillcolor="#e58139f3"] ;
170 -> 172 ;
173 [label=<gini = 0.0<br/>samples = 15<br/>value = [15, 0, 0, 0]<br/>class = P>, fillcolor="#e58139ff"] ;
172 -> 173 ;
174 [label=<reviews_per_month &le; 1.125<br/>gini = 0.219<br/>samples = 8<br/>value = [7, 1, 0, 0]<br/>class = P>, fillcolor="#e58139db"] ;
172 -> 174 ;
175 [label=<bathrooms &le; 1.25<br/>gini = 0.444<br/>samples = 3<br/>value = [2, 1, 0, 0]<br/>class = P>, fillcolor="#e581397f"] ;
174 -> 175 ;
176 [label=<gini = 0.5<br/>samples = 2<br/>value = [1, 1, 0, 0]<br/>class = P>, fillcolor="#e5813900"] ;
175 -> 176 ;
177 [label=<gini = 0.0<br/>samples = 1<br/>value = [1, 0, 0, 0]<br/>class = P>, fillcolor="#e58139ff"] ;
175 -> 177 ;
178 [label=<gini = 0.0<br/>samples = 5<br/>value = [5, 0, 0, 0]<br/>class = P>, fillcolor="#e58139ff"] ;
174 -> 178 ;
179 [label=<reviews_per_month &le; 2.585<br/>gini = 0.496<br/>samples = 11<br/>value = [6, 5, 0, 0]<br/>class = P>, fillcolor="#e581392a"] ;
111 -> 179 ;
180 [label=<gini = 0.0<br/>samples = 3<br/>value = [0, 3, 0, 0]<br/>class = r>, fillcolor="#47e539ff"] ;
179 -> 180 ;
181 [label=<reviews_per_month &le; 2.625<br/>gini = 0.375<br/>samples = 8<br/>value = [6, 2, 0, 0]<br/>class = P>, fillcolor="#e58139aa"] ;
179 -> 181 ;
182 [label=<gini = 0.0<br/>samples = 5<br/>value = [5, 0, 0, 0]<br/>class = P>, fillcolor="#e58139ff"] ;
181 -> 182 ;
183 [label=<transitTextWordsPerc &le; 0.895<br/>gini = 0.444<br/>samples = 3<br/>value = [1, 2, 0, 0]<br/>class = r>, fillcolor="#47e5397f"] ;
181 -> 183 ;
184 [label=<gini = 0.0<br/>samples = 1<br/>value = [1, 0, 0, 0]<br/>class = P>, fillcolor="#e58139ff"] ;
183 -> 184 ;
185 [label=<gini = 0.0<br/>samples = 2<br/>value = [0, 2, 0, 0]<br/>class = r>, fillcolor="#47e539ff"] ;
183 -> 185 ;
186 [label=<gini = 0.0<br/>samples = 126<br/>value = [126, 0, 0, 0]<br/>class = P>, fillcolor="#e58139ff"] ;
110 -> 186 ;
187 [label=<review_scores_rating &le; 93.36<br/>gini = 0.373<br/>samples = 770<br/>value = [591, 148, 21, 10]<br/>class = P>, fillcolor="#e58139b6"] ;
1 -> 187 ;
188 [label=<review_scores_rating &le; 75.5<br/>gini = 0.268<br/>samples = 218<br/>value = [185, 21, 10, 2]<br/>class = P>, fillcolor="#e58139d4"] ;
187 -> 188 ;
189 [label=<transitTextWordsPerc &le; 0.903<br/>gini = 0.499<br/>samples = 23<br/>value = [12, 11, 0, 0]<br/>class = P>, fillcolor="#e5813915"] ;
188 -> 189 ;
190 [label=<gini = 0.0<br/>samples = 6<br/>value = [6, 0, 0, 0]<br/>class = P>, fillcolor="#e58139ff"] ;
189 -> 190 ;
191 [label=<reviews_per_month &le; 0.91<br/>gini = 0.457<br/>samples = 17<br/>value = [6, 11, 0, 0]<br/>class = r>, fillcolor="#47e53974"] ;
189 -> 191 ;
192 [label=<reviews_per_month &le; 0.455<br/>gini = 0.391<br/>samples = 15<br/>value = [4, 11, 0, 0]<br/>class = r>, fillcolor="#47e539a2"] ;
191 -> 192 ;
193 [label=<review_scores_rating &le; 63.5<br/>gini = 0.49<br/>samples = 7<br/>value = [4, 3, 0, 0]<br/>class = P>, fillcolor="#e5813940"] ;
192 -> 193 ;
194 [label=<gini = 0.0<br/>samples = 3<br/>value = [3, 0, 0, 0]<br/>class = P>, fillcolor="#e58139ff"] ;
193 -> 194 ;
195 [label=<review_scores_rating &le; 71.0<br/>gini = 0.375<br/>samples = 4<br/>value = [1, 3, 0, 0]<br/>class = r>, fillcolor="#47e539aa"] ;
193 -> 195 ;
196 [label=<gini = 0.0<br/>samples = 3<br/>value = [0, 3, 0, 0]<br/>class = r>, fillcolor="#47e539ff"] ;
195 -> 196 ;
197 [label=<gini = 0.0<br/>samples = 1<br/>value = [1, 0, 0, 0]<br/>class = P>, fillcolor="#e58139ff"] ;
195 -> 197 ;
198 [label=<gini = 0.0<br/>samples = 8<br/>value = [0, 8, 0, 0]<br/>class = r>, fillcolor="#47e539ff"] ;
192 -> 198 ;
199 [label=<gini = 0.0<br/>samples = 2<br/>value = [2, 0, 0, 0]<br/>class = P>, fillcolor="#e58139ff"] ;
191 -> 199 ;
200 [label=<reviews_per_month &le; 4.86<br/>gini = 0.208<br/>samples = 195<br/>value = [173, 10, 10, 2]<br/>class = P>, fillcolor="#e58139e1"] ;
188 -> 200 ;
201 [label=<transitTextWordsPerc &le; 0.949<br/>gini = 0.178<br/>samples = 189<br/>value = [171, 9, 7, 2]<br/>class = P>, fillcolor="#e58139e6"] ;
200 -> 201 ;
202 [label=<transitTextWordsPerc &le; 0.892<br/>gini = 0.303<br/>samples = 93<br/>value = [77, 7, 7, 2]<br/>class = P>, fillcolor="#e58139d0"] ;
201 -> 202 ;
203 [label=<reviews_per_month &le; 3.465<br/>gini = 0.037<br/>samples = 53<br/>value = [52, 0, 0, 1]<br/>class = P>, fillcolor="#e58139fa"] ;
202 -> 203 ;
204 [label=<gini = 0.0<br/>samples = 51<br/>value = [51, 0, 0, 0]<br/>class = P>, fillcolor="#e58139ff"] ;
203 -> 204 ;
205 [label=<gini = 0.5<br/>samples = 2<br/>value = [1, 0, 0, 1]<br/>class = P>, fillcolor="#e5813900"] ;
203 -> 205 ;
206 [label=<transitTextWordsPerc &le; 0.895<br/>gini = 0.547<br/>samples = 40<br/>value = [25, 7, 7, 1]<br/>class = P>, fillcolor="#e581398b"] ;
202 -> 206 ;
207 [label=<review_scores_rating &le; 92.0<br/>gini = 0.444<br/>samples = 9<br/>value = [0, 6, 3, 0]<br/>class = r>, fillcolor="#47e5397f"] ;
206 -> 207 ;
208 [label=<gini = 0.0<br/>samples = 6<br/>value = [0, 6, 0, 0]<br/>class = r>, fillcolor="#47e539ff"] ;
207 -> 208 ;
209 [label=<gini = 0.0<br/>samples = 3<br/>value = [0, 0, 3, 0]<br/>class = i>, fillcolor="#399de5ff"] ;
207 -> 209 ;
210 [label=<transitTextWordsPerc &le; 0.931<br/>gini = 0.331<br/>samples = 31<br/>value = [25, 1, 4, 1]<br/>class = P>, fillcolor="#e58139c6"] ;
206 -> 210 ;
211 [label=<gini = 0.0<br/>samples = 21<br/>value = [21, 0, 0, 0]<br/>class = P>, fillcolor="#e58139ff"] ;
210 -> 211 ;
212 [label=<reviews_per_month &le; 2.1<br/>gini = 0.66<br/>samples = 10<br/>value = [4, 1, 4, 1]<br/>class = P>, fillcolor="#e5813900"] ;
210 -> 212 ;
213 [label=<reviews_per_month &le; 1.44<br/>gini = 0.5<br/>samples = 6<br/>value = [0, 1, 4, 1]<br/>class = i>, fillcolor="#399de599"] ;
212 -> 213 ;
214 [label=<transitTextWordsPerc &le; 0.938<br/>gini = 0.32<br/>samples = 5<br/>value = [0, 0, 4, 1]<br/>class = i>, fillcolor="#399de5bf"] ;
213 -> 214 ;
215 [label=<gini = 0.0<br/>samples = 3<br/>value = [0, 0, 3, 0]<br/>class = i>, fillcolor="#399de5ff"] ;
214 -> 215 ;
216 [label=<gini = 0.5<br/>samples = 2<br/>value = [0, 0, 1, 1]<br/>class = i>, fillcolor="#399de500"] ;
214 -> 216 ;
217 [label=<gini = 0.0<br/>samples = 1<br/>value = [0, 1, 0, 0]<br/>class = r>, fillcolor="#47e539ff"] ;
213 -> 217 ;
218 [label=<gini = 0.0<br/>samples = 4<br/>value = [4, 0, 0, 0]<br/>class = P>, fillcolor="#e58139ff"] ;
212 -> 218 ;
219 [label=<review_scores_rating &le; 82.5<br/>gini = 0.041<br/>samples = 96<br/>value = [94, 2, 0, 0]<br/>class = P>, fillcolor="#e58139fa"] ;
201 -> 219 ;
220 [label=<review_scores_rating &le; 81.0<br/>gini = 0.198<br/>samples = 18<br/>value = [16, 2, 0, 0]<br/>class = P>, fillcolor="#e58139df"] ;
219 -> 220 ;
221 [label=<gini = 0.0<br/>samples = 16<br/>value = [16, 0, 0, 0]<br/>class = P>, fillcolor="#e58139ff"] ;
220 -> 221 ;
222 [label=<gini = 0.0<br/>samples = 2<br/>value = [0, 2, 0, 0]<br/>class = r>, fillcolor="#47e539ff"] ;
220 -> 222 ;
223 [label=<gini = 0.0<br/>samples = 78<br/>value = [78, 0, 0, 0]<br/>class = P>, fillcolor="#e58139ff"] ;
219 -> 223 ;
224 [label=<reviews_per_month &le; 5.905<br/>gini = 0.611<br/>samples = 6<br/>value = [2, 1, 3, 0]<br/>class = i>, fillcolor="#399de540"] ;
200 -> 224 ;
225 [label=<reviews_per_month &le; 5.41<br/>gini = 0.375<br/>samples = 4<br/>value = [0, 1, 3, 0]<br/>class = i>, fillcolor="#399de5aa"] ;
224 -> 225 ;
226 [label=<gini = 0.0<br/>samples = 2<br/>value = [0, 0, 2, 0]<br/>class = i>, fillcolor="#399de5ff"] ;
225 -> 226 ;
227 [label=<gini = 0.5<br/>samples = 2<br/>value = [0, 1, 1, 0]<br/>class = r>, fillcolor="#47e53900"] ;
225 -> 227 ;
228 [label=<gini = 0.0<br/>samples = 2<br/>value = [2, 0, 0, 0]<br/>class = P>, fillcolor="#e58139ff"] ;
224 -> 228 ;
229 [label=<review_scores_rating &le; 93.86<br/>gini = 0.405<br/>samples = 552<br/>value = [406, 127, 11, 8]<br/>class = P>, fillcolor="#e58139a7"] ;
187 -> 229 ;
230 [label=<reviews_per_month &le; 0.505<br/>gini = 0.492<br/>samples = 257<br/>value = [166, 77, 8, 6]<br/>class = P>, fillcolor="#e581397e"] ;
229 -> 230 ;
231 [label=<reviews_per_month &le; 0.225<br/>gini = 0.198<br/>samples = 9<br/>value = [1, 8, 0, 0]<br/>class = r>, fillcolor="#47e539df"] ;
230 -> 231 ;
232 [label=<reviews_per_month &le; 0.13<br/>gini = 0.375<br/>samples = 4<br/>value = [1, 3, 0, 0]<br/>class = r>, fillcolor="#47e539aa"] ;
231 -> 232 ;
233 [label=<gini = 0.0<br/>samples = 3<br/>value = [0, 3, 0, 0]<br/>class = r>, fillcolor="#47e539ff"] ;
232 -> 233 ;
234 [label=<gini = 0.0<br/>samples = 1<br/>value = [1, 0, 0, 0]<br/>class = P>, fillcolor="#e58139ff"] ;
232 -> 234 ;
235 [label=<gini = 0.0<br/>samples = 5<br/>value = [0, 5, 0, 0]<br/>class = r>, fillcolor="#47e539ff"] ;
231 -> 235 ;
236 [label=<transitTextWordsPerc &le; 0.874<br/>gini = 0.478<br/>samples = 248<br/>value = [165, 69, 8, 6]<br/>class = P>, fillcolor="#e5813989"] ;
230 -> 236 ;
237 [label=<transitTextWordsPerc &le; 0.87<br/>gini = 0.667<br/>samples = 43<br/>value = [19, 14, 7, 3]<br/>class = P>, fillcolor="#e581392c"] ;
236 -> 237 ;
238 [label=<bedrooms &le; 1.5<br/>gini = 0.566<br/>samples = 29<br/>value = [18, 4, 4, 3]<br/>class = P>, fillcolor="#e581398f"] ;
237 -> 238 ;
239 [label=<gini = 0.0<br/>samples = 3<br/>value = [0, 0, 0, 3]<br/>class = c>, fillcolor="#d739e5ff"] ;
238 -> 239 ;
240 [label=<transitTextWordsPerc &le; 0.794<br/>gini = 0.473<br/>samples = 26<br/>value = [18, 4, 4, 0]<br/>class = P>, fillcolor="#e58139a2"] ;
238 -> 240 ;
241 [label=<gini = 0.0<br/>samples = 8<br/>value = [8, 0, 0, 0]<br/>class = P>, fillcolor="#e58139ff"] ;
240 -> 241 ;
242 [label=<transitTextWordsPerc &le; 0.829<br/>gini = 0.593<br/>samples = 18<br/>value = [10, 4, 4, 0]<br/>class = P>, fillcolor="#e581396d"] ;
240 -> 242 ;
243 [label=<gini = 0.0<br/>samples = 2<br/>value = [0, 0, 2, 0]<br/>class = i>, fillcolor="#399de5ff"] ;
242 -> 243 ;
244 [label=<transitTextWordsPerc &le; 0.844<br/>gini = 0.531<br/>samples = 16<br/>value = [10, 4, 2, 0]<br/>class = P>, fillcolor="#e5813980"] ;
242 -> 244 ;
245 [label=<transitTextWordsPerc &le; 0.84<br/>gini = 0.49<br/>samples = 7<br/>value = [3, 4, 0, 0]<br/>class = r>, fillcolor="#47e53940"] ;
244 -> 245 ;
246 [label=<gini = 0.0<br/>samples = 3<br/>value = [3, 0, 0, 0]<br/>class = P>, fillcolor="#e58139ff"] ;
245 -> 246 ;
247 [label=<gini = 0.0<br/>samples = 4<br/>value = [0, 4, 0, 0]<br/>class = r>, fillcolor="#47e539ff"] ;
245 -> 247 ;
248 [label=<transitTextWordsPerc &le; 0.858<br/>gini = 0.346<br/>samples = 9<br/>value = [7, 0, 2, 0]<br/>class = P>, fillcolor="#e58139b6"] ;
244 -> 248 ;
249 [label=<gini = 0.0<br/>samples = 5<br/>value = [5, 0, 0, 0]<br/>class = P>, fillcolor="#e58139ff"] ;
248 -> 249 ;
250 [label=<transitTextWordsPerc &le; 0.863<br/>gini = 0.5<br/>samples = 4<br/>value = [2, 0, 2, 0]<br/>class = P>, fillcolor="#e5813900"] ;
248 -> 250 ;
251 [label=<gini = 0.0<br/>samples = 2<br/>value = [0, 0, 2, 0]<br/>class = i>, fillcolor="#399de5ff"] ;
250 -> 251 ;
252 [label=<gini = 0.0<br/>samples = 2<br/>value = [2, 0, 0, 0]<br/>class = P>, fillcolor="#e58139ff"] ;
250 -> 252 ;
253 [label=<gini = 0.439<br/>samples = 14<br/>value = [1, 10, 3, 0]<br/>class = r>, fillcolor="#47e539a2"] ;
237 -> 253 ;
254 [label=<transitTextWordsPerc &le; 0.896<br/>gini = 0.421<br/>samples = 205<br/>value = [146, 55, 1, 3]<br/>class = P>, fillcolor="#e581399b"] ;
236 -> 254 ;
255 [label=<gini = 0.0<br/>samples = 12<br/>value = [12, 0, 0, 0]<br/>class = P>, fillcolor="#e58139ff"] ;
254 -> 255 ;
256 [label=<transitTextWordsPerc &le; 0.928<br/>gini = 0.436<br/>samples = 193<br/>value = [134, 55, 1, 3]<br/>class = P>, fillcolor="#e5813992"] ;
254 -> 256 ;
257 [label=<bathrooms &le; 2.25<br/>gini = 0.499<br/>samples = 27<br/>value = [14, 13, 0, 0]<br/>class = P>, fillcolor="#e5813912"] ;
256 -> 257 ;
258 [label=<transitTextWordsPerc &le; 0.922<br/>gini = 0.408<br/>samples = 14<br/>value = [10, 4, 0, 0]<br/>class = P>, fillcolor="#e5813999"] ;
257 -> 258 ;
259 [label=<transitTextWordsPerc &le; 0.905<br/>gini = 0.278<br/>samples = 12<br/>value = [10, 2, 0, 0]<br/>class = P>, fillcolor="#e58139cc"] ;
258 -> 259 ;
260 [label=<transitTextWordsPerc &le; 0.904<br/>gini = 0.48<br/>samples = 5<br/>value = [3, 2, 0, 0]<br/>class = P>, fillcolor="#e5813955"] ;
259 -> 260 ;
261 [label=<gini = 0.0<br/>samples = 3<br/>value = [3, 0, 0, 0]<br/>class = P>, fillcolor="#e58139ff"] ;
260 -> 261 ;
262 [label=<gini = 0.0<br/>samples = 2<br/>value = [0, 2, 0, 0]<br/>class = r>, fillcolor="#47e539ff"] ;
260 -> 262 ;
263 [label=<gini = 0.0<br/>samples = 7<br/>value = [7, 0, 0, 0]<br/>class = P>, fillcolor="#e58139ff"] ;
259 -> 263 ;
264 [label=<gini = 0.0<br/>samples = 2<br/>value = [0, 2, 0, 0]<br/>class = r>, fillcolor="#47e539ff"] ;
258 -> 264 ;
265 [label=<bathrooms &le; 2.75<br/>gini = 0.426<br/>samples = 13<br/>value = [4, 9, 0, 0]<br/>class = r>, fillcolor="#47e5398e"] ;
257 -> 265 ;
266 [label=<transitTextWordsPerc &le; 0.914<br/>gini = 0.18<br/>samples = 10<br/>value = [1, 9, 0, 0]<br/>class = r>, fillcolor="#47e539e3"] ;
265 -> 266 ;
267 [label=<gini = 0.0<br/>samples = 9<br/>value = [0, 9, 0, 0]<br/>class = r>, fillcolor="#47e539ff"] ;
266 -> 267 ;
268 [label=<gini = 0.0<br/>samples = 1<br/>value = [1, 0, 0, 0]<br/>class = P>, fillcolor="#e58139ff"] ;
266 -> 268 ;
269 [label=<gini = 0.0<br/>samples = 3<br/>value = [3, 0, 0, 0]<br/>class = P>, fillcolor="#e58139ff"] ;
265 -> 269 ;
270 [label=<transitTextWordsPerc &le; 0.976<br/>gini = 0.413<br/>samples = 166<br/>value = [120, 42, 1, 3]<br/>class = P>, fillcolor="#e58139a0"] ;
256 -> 270 ;
271 [label=<gini = 0.0<br/>samples = 14<br/>value = [14, 0, 0, 0]<br/>class = P>, fillcolor="#e58139ff"] ;
270 -> 271 ;
272 [label=<bathrooms &le; 2.75<br/>gini = 0.437<br/>samples = 152<br/>value = [106, 42, 1, 3]<br/>class = P>, fillcolor="#e5813994"] ;
270 -> 272 ;
273 [label=<bedrooms &le; 0.5<br/>gini = 0.425<br/>samples = 149<br/>value = [106, 39, 1, 3]<br/>class = P>, fillcolor="#e581399b"] ;
272 -> 273 ;
274 [label=<gini = 0.0<br/>samples = 1<br/>value = [0, 0, 0, 1]<br/>class = c>, fillcolor="#d739e5ff"] ;
273 -> 274 ;
275 [label=<square_feet &le; 1192.074<br/>gini = 0.417<br/>samples = 148<br/>value = [106, 39, 1, 2]<br/>class = P>, fillcolor="#e581399d"] ;
273 -> 275 ;
276 [label=<bedrooms &le; 1.5<br/>gini = 0.413<br/>samples = 147<br/>value = [106, 38, 1, 2]<br/>class = P>, fillcolor="#e581399f"] ;
275 -> 276 ;
277 [label=<gini = 0.0<br/>samples = 5<br/>value = [5, 0, 0, 0]<br/>class = P>, fillcolor="#e58139ff"] ;
276 -> 277 ;
278 [label=<reviews_per_month &le; 1.152<br/>gini = 0.422<br/>samples = 142<br/>value = [101, 38, 1, 2]<br/>class = P>, fillcolor="#e581399a"] ;
276 -> 278 ;
279 [label=<gini = 0.0<br/>samples = 2<br/>value = [2, 0, 0, 0]<br/>class = P>, fillcolor="#e58139ff"] ;
278 -> 279 ;
280 [label=<bathrooms &le; 2.25<br/>gini = 0.426<br/>samples = 140<br/>value = [99, 38, 1, 2]<br/>class = P>, fillcolor="#e5813998"] ;
278 -> 280 ;
281 [label=<gini = 0.433<br/>samples = 133<br/>value = [93, 37, 1, 2]<br/>class = P>, fillcolor="#e5813995"] ;
280 -> 281 ;
282 [label=<gini = 0.245<br/>samples = 7<br/>value = [6, 1, 0, 0]<br/>class = P>, fillcolor="#e58139d4"] ;
280 -> 282 ;
283 [label=<gini = 0.0<br/>samples = 1<br/>value = [0, 1, 0, 0]<br/>class = r>, fillcolor="#47e539ff"] ;
275 -> 283 ;
284 [label=<gini = 0.0<br/>samples = 3<br/>value = [0, 3, 0, 0]<br/>class = r>, fillcolor="#47e539ff"] ;
272 -> 284 ;
285 [label=<bathrooms &le; 2.25<br/>gini = 0.309<br/>samples = 295<br/>value = [240, 50, 3, 2]<br/>class = P>, fillcolor="#e58139c6"] ;
229 -> 285 ;
286 [label=<square_feet &le; 1300.0<br/>gini = 0.26<br/>samples = 246<br/>value = [209, 33, 2, 2]<br/>class = P>, fillcolor="#e58139d3"] ;
285 -> 286 ;
287 [label=<reviews_per_month &le; 1.01<br/>gini = 0.254<br/>samples = 245<br/>value = [209, 33, 1, 2]<br/>class = P>, fillcolor="#e58139d4"] ;
286 -> 287 ;
288 [label=<reviews_per_month &le; 0.915<br/>gini = 0.308<br/>samples = 133<br/>value = [108, 24, 1, 0]<br/>class = P>, fillcolor="#e58139c5"] ;
287 -> 288 ;
289 [label=<bedrooms &le; 1.5<br/>gini = 0.221<br/>samples = 104<br/>value = [91, 12, 1, 0]<br/>class = P>, fillcolor="#e58139db"] ;
288 -> 289 ;
290 [label=<reviews_per_month &le; 0.465<br/>gini = 0.48<br/>samples = 5<br/>value = [3, 2, 0, 0]<br/>class = P>, fillcolor="#e5813955"] ;
289 -> 290 ;
291 [label=<gini = 0.0<br/>samples = 2<br/>value = [0, 2, 0, 0]<br/>class = r>, fillcolor="#47e539ff"] ;
290 -> 291 ;
292 [label=<gini = 0.0<br/>samples = 3<br/>value = [3, 0, 0, 0]<br/>class = P>, fillcolor="#e58139ff"] ;
290 -> 292 ;
293 [label=<reviews_per_month &le; 0.215<br/>gini = 0.2<br/>samples = 99<br/>value = [88, 10, 1, 0]<br/>class = P>, fillcolor="#e58139df"] ;
289 -> 293 ;
294 [label=<gini = 0.0<br/>samples = 30<br/>value = [30, 0, 0, 0]<br/>class = P>, fillcolor="#e58139ff"] ;
293 -> 294 ;
295 [label=<reviews_per_month &le; 0.23<br/>gini = 0.272<br/>samples = 69<br/>value = [58, 10, 1, 0]<br/>class = P>, fillcolor="#e58139cf"] ;
293 -> 295 ;
296 [label=<transitTextWordsPerc &le; 0.882<br/>gini = 0.5<br/>samples = 4<br/>value = [2, 2, 0, 0]<br/>class = P>, fillcolor="#e5813900"] ;
295 -> 296 ;
297 [label=<gini = 0.0<br/>samples = 2<br/>value = [0, 2, 0, 0]<br/>class = r>, fillcolor="#47e539ff"] ;
296 -> 297 ;
298 [label=<gini = 0.0<br/>samples = 2<br/>value = [2, 0, 0, 0]<br/>class = P>, fillcolor="#e58139ff"] ;
296 -> 298 ;
299 [label=<transitTextWordsPerc &le; 0.867<br/>gini = 0.242<br/>samples = 65<br/>value = [56, 8, 1, 0]<br/>class = P>, fillcolor="#e58139d7"] ;
295 -> 299 ;
300 [label=<gini = 0.0<br/>samples = 15<br/>value = [15, 0, 0, 0]<br/>class = P>, fillcolor="#e58139ff"] ;
299 -> 300 ;
301 [label=<transitTextWordsPerc &le; 0.881<br/>gini = 0.302<br/>samples = 50<br/>value = [41, 8, 1, 0]<br/>class = P>, fillcolor="#e58139c8"] ;
299 -> 301 ;
302 [label=<gini = 0.0<br/>samples = 3<br/>value = [0, 3, 0, 0]<br/>class = r>, fillcolor="#47e539ff"] ;
301 -> 302 ;
303 [label=<reviews_per_month &le; 0.535<br/>gini = 0.227<br/>samples = 47<br/>value = [41, 5, 1, 0]<br/>class = P>, fillcolor="#e58139db"] ;
301 -> 303 ;
304 [label=<reviews_per_month &le; 0.49<br/>gini = 0.349<br/>samples = 28<br/>value = [22, 5, 1, 0]<br/>class = P>, fillcolor="#e58139bc"] ;
303 -> 304 ;
305 [label=<transitTextWordsPerc &le; 0.974<br/>gini = 0.211<br/>samples = 25<br/>value = [22, 3, 0, 0]<br/>class = P>, fillcolor="#e58139dc"] ;
304 -> 305 ;
306 [label=<gini = 0.0<br/>samples = 10<br/>value = [10, 0, 0, 0]<br/>class = P>, fillcolor="#e58139ff"] ;
305 -> 306 ;
307 [label=<reviews_per_month &le; 0.365<br/>gini = 0.32<br/>samples = 15<br/>value = [12, 3, 0, 0]<br/>class = P>, fillcolor="#e58139bf"] ;
305 -> 307 ;
308 [label=<reviews_per_month &le; 0.335<br/>gini = 0.49<br/>samples = 7<br/>value = [4, 3, 0, 0]<br/>class = P>, fillcolor="#e5813940"] ;
307 -> 308 ;
309 [label=<reviews_per_month &le; 0.28<br/>gini = 0.32<br/>samples = 5<br/>value = [4, 1, 0, 0]<br/>class = P>, fillcolor="#e58139bf"] ;
308 -> 309 ;
310 [label=<gini = 0.0<br/>samples = 1<br/>value = [0, 1, 0, 0]<br/>class = r>, fillcolor="#47e539ff"] ;
309 -> 310 ;
311 [label=<gini = 0.0<br/>samples = 4<br/>value = [4, 0, 0, 0]<br/>class = P>, fillcolor="#e58139ff"] ;
309 -> 311 ;
312 [label=<gini = 0.0<br/>samples = 2<br/>value = [0, 2, 0, 0]<br/>class = r>, fillcolor="#47e539ff"] ;
308 -> 312 ;
313 [label=<gini = 0.0<br/>samples = 8<br/>value = [8, 0, 0, 0]<br/>class = P>, fillcolor="#e58139ff"] ;
307 -> 313 ;
314 [label=<review_scores_rating &le; 97.5<br/>gini = 0.444<br/>samples = 3<br/>value = [0, 2, 1, 0]<br/>class = r>, fillcolor="#47e5397f"] ;
304 -> 314 ;
315 [label=<gini = 0.0<br/>samples = 1<br/>value = [0, 0, 1, 0]<br/>class = i>, fillcolor="#399de5ff"] ;
314 -> 315 ;
316 [label=<gini = 0.0<br/>samples = 2<br/>value = [0, 2, 0, 0]<br/>class = r>, fillcolor="#47e539ff"] ;
314 -> 316 ;
317 [label=<gini = 0.0<br/>samples = 19<br/>value = [19, 0, 0, 0]<br/>class = P>, fillcolor="#e58139ff"] ;
303 -> 317 ;
318 [label=<reviews_per_month &le; 0.975<br/>gini = 0.485<br/>samples = 29<br/>value = [17, 12, 0, 0]<br/>class = P>, fillcolor="#e581394b"] ;
288 -> 318 ;
319 [label=<reviews_per_month &le; 0.935<br/>gini = 0.375<br/>samples = 8<br/>value = [2, 6, 0, 0]<br/>class = r>, fillcolor="#47e539aa"] ;
318 -> 319 ;
320 [label=<review_scores_rating &le; 98.5<br/>gini = 0.5<br/>samples = 4<br/>value = [2, 2, 0, 0]<br/>class = P>, fillcolor="#e5813900"] ;
319 -> 320 ;
321 [label=<gini = 0.0<br/>samples = 2<br/>value = [0, 2, 0, 0]<br/>class = r>, fillcolor="#47e539ff"] ;
320 -> 321 ;
322 [label=<gini = 0.0<br/>samples = 2<br/>value = [2, 0, 0, 0]<br/>class = P>, fillcolor="#e58139ff"] ;
320 -> 322 ;
323 [label=<gini = 0.0<br/>samples = 4<br/>value = [0, 4, 0, 0]<br/>class = r>, fillcolor="#47e539ff"] ;
319 -> 323 ;
324 [label=<transitTextWordsPerc &le; 0.876<br/>gini = 0.408<br/>samples = 21<br/>value = [15, 6, 0, 0]<br/>class = P>, fillcolor="#e5813999"] ;
318 -> 324 ;
325 [label=<gini = 0.0<br/>samples = 4<br/>value = [4, 0, 0, 0]<br/>class = P>, fillcolor="#e58139ff"] ;
324 -> 325 ;
326 [label=<transitTextWordsPerc &le; 0.899<br/>gini = 0.457<br/>samples = 17<br/>value = [11, 6, 0, 0]<br/>class = P>, fillcolor="#e5813974"] ;
324 -> 326 ;
327 [label=<gini = 0.0<br/>samples = 2<br/>value = [0, 2, 0, 0]<br/>class = r>, fillcolor="#47e539ff"] ;
326 -> 327 ;
328 [label=<transitTextWordsPerc &le; 0.952<br/>gini = 0.391<br/>samples = 15<br/>value = [11, 4, 0, 0]<br/>class = P>, fillcolor="#e58139a2"] ;
326 -> 328 ;
329 [label=<gini = 0.0<br/>samples = 3<br/>value = [3, 0, 0, 0]<br/>class = P>, fillcolor="#e58139ff"] ;
328 -> 329 ;
330 [label=<gini = 0.444<br/>samples = 12<br/>value = [8, 4, 0, 0]<br/>class = P>, fillcolor="#e581397f"] ;
328 -> 330 ;
331 [label=<reviews_per_month &le; 2.73<br/>gini = 0.18<br/>samples = 112<br/>value = [101, 9, 0, 2]<br/>class = P>, fillcolor="#e58139e4"] ;
287 -> 331 ;
332 [label=<transitTextWordsPerc &le; 0.85<br/>gini = 0.129<br/>samples = 88<br/>value = [82, 4, 0, 2]<br/>class = P>, fillcolor="#e58139ed"] ;
331 -> 332 ;
333 [label=<transitTextWordsPerc &le; 0.841<br/>gini = 0.305<br/>samples = 16<br/>value = [13, 3, 0, 0]<br/>class = P>, fillcolor="#e58139c4"] ;
332 -> 333 ;
334 [label=<review_scores_rating &le; 95.5<br/>gini = 0.133<br/>samples = 14<br/>value = [13, 1, 0, 0]<br/>class = P>, fillcolor="#e58139eb"] ;
333 -> 334 ;
335 [label=<gini = 0.5<br/>samples = 2<br/>value = [1, 1, 0, 0]<br/>class = P>, fillcolor="#e5813900"] ;
334 -> 335 ;
336 [label=<gini = 0.0<br/>samples = 12<br/>value = [12, 0, 0, 0]<br/>class = P>, fillcolor="#e58139ff"] ;
334 -> 336 ;
337 [label=<gini = 0.0<br/>samples = 2<br/>value = [0, 2, 0, 0]<br/>class = r>, fillcolor="#47e539ff"] ;
333 -> 337 ;
338 [label=<reviews_per_month &le; 2.445<br/>gini = 0.081<br/>samples = 72<br/>value = [69, 1, 0, 2]<br/>class = P>, fillcolor="#e58139f4"] ;
332 -> 338 ;
339 [label=<reviews_per_month &le; 1.305<br/>gini = 0.033<br/>samples = 60<br/>value = [59, 1, 0, 0]<br/>class = P>, fillcolor="#e58139fb"] ;
338 -> 339 ;
340 [label=<reviews_per_month &le; 1.255<br/>gini = 0.105<br/>samples = 18<br/>value = [17, 1, 0, 0]<br/>class = P>, fillcolor="#e58139f0"] ;
339 -> 340 ;
341 [label=<gini = 0.0<br/>samples = 17<br/>value = [17, 0, 0, 0]<br/>class = P>, fillcolor="#e58139ff"] ;
340 -> 341 ;
342 [label=<gini = 0.0<br/>samples = 1<br/>value = [0, 1, 0, 0]<br/>class = r>, fillcolor="#47e539ff"] ;
340 -> 342 ;
343 [label=<gini = 0.0<br/>samples = 42<br/>value = [42, 0, 0, 0]<br/>class = P>, fillcolor="#e58139ff"] ;
339 -> 343 ;
344 [label=<reviews_per_month &le; 2.465<br/>gini = 0.278<br/>samples = 12<br/>value = [10, 0, 0, 2]<br/>class = P>, fillcolor="#e58139cc"] ;
338 -> 344 ;
345 [label=<gini = 0.0<br/>samples = 2<br/>value = [0, 0, 0, 2]<br/>class = c>, fillcolor="#d739e5ff"] ;
344 -> 345 ;
346 [label=<gini = 0.0<br/>samples = 10<br/>value = [10, 0, 0, 0]<br/>class = P>, fillcolor="#e58139ff"] ;
344 -> 346 ;
347 [label=<reviews_per_month &le; 2.765<br/>gini = 0.33<br/>samples = 24<br/>value = [19, 5, 0, 0]<br/>class = P>, fillcolor="#e58139bc"] ;
331 -> 347 ;
348 [label=<gini = 0.0<br/>samples = 3<br/>value = [0, 3, 0, 0]<br/>class = r>, fillcolor="#47e539ff"] ;
347 -> 348 ;
349 [label=<reviews_per_month &le; 3.275<br/>gini = 0.172<br/>samples = 21<br/>value = [19, 2, 0, 0]<br/>class = P>, fillcolor="#e58139e4"] ;
347 -> 349 ;
350 [label=<review_scores_rating &le; 96.5<br/>gini = 0.48<br/>samples = 5<br/>value = [3, 2, 0, 0]<br/>class = P>, fillcolor="#e5813955"] ;
349 -> 350 ;
351 [label=<gini = 0.0<br/>samples = 2<br/>value = [0, 2, 0, 0]<br/>class = r>, fillcolor="#47e539ff"] ;
350 -> 351 ;
352 [label=<gini = 0.0<br/>samples = 3<br/>value = [3, 0, 0, 0]<br/>class = P>, fillcolor="#e58139ff"] ;
350 -> 352 ;
353 [label=<gini = 0.0<br/>samples = 16<br/>value = [16, 0, 0, 0]<br/>class = P>, fillcolor="#e58139ff"] ;
349 -> 353 ;
354 [label=<gini = 0.0<br/>samples = 1<br/>value = [0, 0, 1, 0]<br/>class = i>, fillcolor="#399de5ff"] ;
286 -> 354 ;
355 [label=<reviews_per_month &le; 0.205<br/>gini = 0.479<br/>samples = 49<br/>value = [31, 17, 1, 0]<br/>class = P>, fillcolor="#e5813970"] ;
285 -> 355 ;
356 [label=<gini = 0.0<br/>samples = 6<br/>value = [0, 6, 0, 0]<br/>class = r>, fillcolor="#47e539ff"] ;
355 -> 356 ;
357 [label=<reviews_per_month &le; 2.75<br/>gini = 0.414<br/>samples = 43<br/>value = [31, 11, 1, 0]<br/>class = P>, fillcolor="#e581399f"] ;
355 -> 357 ;
358 [label=<bathrooms &le; 3.25<br/>gini = 0.335<br/>samples = 39<br/>value = [31, 7, 1, 0]<br/>class = P>, fillcolor="#e58139bf"] ;
357 -> 358 ;
359 [label=<review_scores_rating &le; 99.0<br/>gini = 0.279<br/>samples = 37<br/>value = [31, 5, 1, 0]<br/>class = P>, fillcolor="#e58139cf"] ;
358 -> 359 ;
360 [label=<gini = 0.0<br/>samples = 16<br/>value = [16, 0, 0, 0]<br/>class = P>, fillcolor="#e58139ff"] ;
359 -> 360 ;
361 [label=<bathrooms &le; 2.75<br/>gini = 0.431<br/>samples = 21<br/>value = [15, 5, 1, 0]<br/>class = P>, fillcolor="#e581399f"] ;
359 -> 361 ;
362 [label=<transitTextWordsPerc &le; 0.877<br/>gini = 0.579<br/>samples = 11<br/>value = [5, 5, 1, 0]<br/>class = P>, fillcolor="#e5813900"] ;
361 -> 362 ;
363 [label=<gini = 0.0<br/>samples = 4<br/>value = [0, 4, 0, 0]<br/>class = r>, fillcolor="#47e539ff"] ;
362 -> 363 ;
364 [label=<transitTextWordsPerc &le; 0.945<br/>gini = 0.449<br/>samples = 7<br/>value = [5, 1, 1, 0]<br/>class = P>, fillcolor="#e58139aa"] ;
362 -> 364 ;
365 [label=<gini = 0.0<br/>samples = 4<br/>value = [4, 0, 0, 0]<br/>class = P>, fillcolor="#e58139ff"] ;
364 -> 365 ;
366 [label=<reviews_per_month &le; 0.75<br/>gini = 0.667<br/>samples = 3<br/>value = [1, 1, 1, 0]<br/>class = P>, fillcolor="#e5813900"] ;
364 -> 366 ;
367 [label=<gini = 0.0<br/>samples = 1<br/>value = [0, 1, 0, 0]<br/>class = r>, fillcolor="#47e539ff"] ;
366 -> 367 ;
368 [label=<reviews_per_month &le; 0.95<br/>gini = 0.5<br/>samples = 2<br/>value = [1, 0, 1, 0]<br/>class = P>, fillcolor="#e5813900"] ;
366 -> 368 ;
369 [label=<gini = 0.0<br/>samples = 1<br/>value = [0, 0, 1, 0]<br/>class = i>, fillcolor="#399de5ff"] ;
368 -> 369 ;
370 [label=<gini = 0.0<br/>samples = 1<br/>value = [1, 0, 0, 0]<br/>class = P>, fillcolor="#e58139ff"] ;
368 -> 370 ;
371 [label=<gini = 0.0<br/>samples = 10<br/>value = [10, 0, 0, 0]<br/>class = P>, fillcolor="#e58139ff"] ;
361 -> 371 ;
372 [label=<gini = 0.0<br/>samples = 2<br/>value = [0, 2, 0, 0]<br/>class = r>, fillcolor="#47e539ff"] ;
358 -> 372 ;
373 [label=<gini = 0.0<br/>samples = 4<br/>value = [0, 4, 0, 0]<br/>class = r>, fillcolor="#47e539ff"] ;
357 -> 373 ;
374 [label=<bathrooms &le; 3.25<br/>gini = 0.671<br/>samples = 1450<br/>value = [600, 530, 154, 166]<br/>class = P>, fillcolor="#e5813913"] ;
0 -> 374 [labeldistance=2.5, labelangle=-45, headlabel="False"] ;
375 [label=<reviews_per_month &le; 2.525<br/>gini = 0.595<br/>samples = 1166<br/>value = [570, 465, 81, 50]<br/>class = P>, fillcolor="#e5813926"] ;
374 -> 375 ;
376 [label=<bathrooms &le; 2.75<br/>gini = 0.603<br/>samples = 1053<br/>value = [477, 452, 76, 48]<br/>class = P>, fillcolor="#e581390b"] ;
375 -> 376 ;
377 [label=<reviews_per_month &le; 1.46<br/>gini = 0.547<br/>samples = 728<br/>value = [388, 298, 24, 18]<br/>class = P>, fillcolor="#e5813935"] ;
376 -> 377 ;
378 [label=<reviews_per_month &le; 0.235<br/>gini = 0.52<br/>samples = 465<br/>value = [279, 160, 13, 13]<br/>class = P>, fillcolor="#e5813963"] ;
377 -> 378 ;
379 [label=<review_scores_rating &le; 75.0<br/>gini = 0.535<br/>samples = 121<br/>value = [52, 64, 2, 3]<br/>class = r>, fillcolor="#47e5392c"] ;
378 -> 379 ;
380 [label=<gini = 0.0<br/>samples = 13<br/>value = [13, 0, 0, 0]<br/>class = P>, fillcolor="#e58139ff"] ;
379 -> 380 ;
381 [label=<reviews_per_month &le; 0.175<br/>gini = 0.517<br/>samples = 108<br/>value = [39, 64, 2, 3]<br/>class = r>, fillcolor="#47e5395c"] ;
379 -> 381 ;
382 [label=<reviews_per_month &le; 0.165<br/>gini = 0.494<br/>samples = 74<br/>value = [33, 41, 0, 0]<br/>class = r>, fillcolor="#47e53932"] ;
381 -> 382 ;
383 [label=<review_scores_rating &le; 94.86<br/>gini = 0.472<br/>samples = 63<br/>value = [24, 39, 0, 0]<br/>class = r>, fillcolor="#47e53962"] ;
382 -> 383 ;
384 [label=<reviews_per_month &le; 0.105<br/>gini = 0.355<br/>samples = 26<br/>value = [6, 20, 0, 0]<br/>class = r>, fillcolor="#47e539b3"] ;
383 -> 384 ;
385 [label=<gini = 0.0<br/>samples = 15<br/>value = [0, 15, 0, 0]<br/>class = r>, fillcolor="#47e539ff"] ;
384 -> 385 ;
386 [label=<reviews_per_month &le; 0.125<br/>gini = 0.496<br/>samples = 11<br/>value = [6, 5, 0, 0]<br/>class = P>, fillcolor="#e581392a"] ;
384 -> 386 ;
387 [label=<gini = 0.0<br/>samples = 4<br/>value = [4, 0, 0, 0]<br/>class = P>, fillcolor="#e58139ff"] ;
386 -> 387 ;
388 [label=<bathrooms &le; 2.25<br/>gini = 0.408<br/>samples = 7<br/>value = [2, 5, 0, 0]<br/>class = r>, fillcolor="#47e53999"] ;
386 -> 388 ;
389 [label=<gini = 0.0<br/>samples = 5<br/>value = [0, 5, 0, 0]<br/>class = r>, fillcolor="#47e539ff"] ;
388 -> 389 ;
390 [label=<gini = 0.0<br/>samples = 2<br/>value = [2, 0, 0, 0]<br/>class = P>, fillcolor="#e58139ff"] ;
388 -> 390 ;
391 [label=<reviews_per_month &le; 0.085<br/>gini = 0.5<br/>samples = 37<br/>value = [18, 19, 0, 0]<br/>class = r>, fillcolor="#47e5390d"] ;
383 -> 391 ;
392 [label=<bathrooms &le; 2.25<br/>gini = 0.432<br/>samples = 19<br/>value = [13, 6, 0, 0]<br/>class = P>, fillcolor="#e5813989"] ;
391 -> 392 ;
393 [label=<gini = 0.0<br/>samples = 9<br/>value = [9, 0, 0, 0]<br/>class = P>, fillcolor="#e58139ff"] ;
392 -> 393 ;
394 [label=<transitTextWordsPerc &le; 0.962<br/>gini = 0.48<br/>samples = 10<br/>value = [4, 6, 0, 0]<br/>class = r>, fillcolor="#47e53955"] ;
392 -> 394 ;
395 [label=<gini = 0.0<br/>samples = 4<br/>value = [4, 0, 0, 0]<br/>class = P>, fillcolor="#e58139ff"] ;
394 -> 395 ;
396 [label=<gini = 0.0<br/>samples = 6<br/>value = [0, 6, 0, 0]<br/>class = r>, fillcolor="#47e539ff"] ;
394 -> 396 ;
397 [label=<reviews_per_month &le; 0.115<br/>gini = 0.401<br/>samples = 18<br/>value = [5, 13, 0, 0]<br/>class = r>, fillcolor="#47e5399d"] ;
391 -> 397 ;
398 [label=<gini = 0.0<br/>samples = 10<br/>value = [0, 10, 0, 0]<br/>class = r>, fillcolor="#47e539ff"] ;
397 -> 398 ;
399 [label=<transitTextWordsPerc &le; 0.917<br/>gini = 0.469<br/>samples = 8<br/>value = [5, 3, 0, 0]<br/>class = P>, fillcolor="#e5813966"] ;
397 -> 399 ;
400 [label=<gini = 0.0<br/>samples = 3<br/>value = [0, 3, 0, 0]<br/>class = r>, fillcolor="#47e539ff"] ;
399 -> 400 ;
401 [label=<gini = 0.0<br/>samples = 5<br/>value = [5, 0, 0, 0]<br/>class = P>, fillcolor="#e58139ff"] ;
399 -> 401 ;
402 [label=<square_feet &le; 1480.074<br/>gini = 0.298<br/>samples = 11<br/>value = [9, 2, 0, 0]<br/>class = P>, fillcolor="#e58139c6"] ;
382 -> 402 ;
403 [label=<gini = 0.0<br/>samples = 9<br/>value = [9, 0, 0, 0]<br/>class = P>, fillcolor="#e58139ff"] ;
402 -> 403 ;
404 [label=<gini = 0.0<br/>samples = 2<br/>value = [0, 2, 0, 0]<br/>class = r>, fillcolor="#47e539ff"] ;
402 -> 404 ;
405 [label=<review_scores_rating &le; 95.5<br/>gini = 0.5<br/>samples = 34<br/>value = [6, 23, 2, 3]<br/>class = r>, fillcolor="#47e5399b"] ;
381 -> 405 ;
406 [label=<transitTextWordsPerc &le; 0.981<br/>gini = 0.496<br/>samples = 11<br/>value = [6, 5, 0, 0]<br/>class = P>, fillcolor="#e581392a"] ;
405 -> 406 ;
407 [label=<transitTextWordsPerc &le; 0.885<br/>gini = 0.408<br/>samples = 7<br/>value = [2, 5, 0, 0]<br/>class = r>, fillcolor="#47e53999"] ;
406 -> 407 ;
408 [label=<gini = 0.0<br/>samples = 2<br/>value = [2, 0, 0, 0]<br/>class = P>, fillcolor="#e58139ff"] ;
407 -> 408 ;
409 [label=<gini = 0.0<br/>samples = 5<br/>value = [0, 5, 0, 0]<br/>class = r>, fillcolor="#47e539ff"] ;
407 -> 409 ;
410 [label=<gini = 0.0<br/>samples = 4<br/>value = [4, 0, 0, 0]<br/>class = P>, fillcolor="#e58139ff"] ;
406 -> 410 ;
411 [label=<reviews_per_month &le; 0.185<br/>gini = 0.363<br/>samples = 23<br/>value = [0, 18, 2, 3]<br/>class = r>, fillcolor="#47e539bf"] ;
405 -> 411 ;
412 [label=<transitTextWordsPerc &le; 0.952<br/>gini = 0.5<br/>samples = 6<br/>value = [0, 3, 0, 3]<br/>class = r>, fillcolor="#47e53900"] ;
411 -> 412 ;
413 [label=<gini = 0.0<br/>samples = 3<br/>value = [0, 3, 0, 0]<br/>class = r>, fillcolor="#47e539ff"] ;
412 -> 413 ;
414 [label=<gini = 0.0<br/>samples = 3<br/>value = [0, 0, 0, 3]<br/>class = c>, fillcolor="#d739e5ff"] ;
412 -> 414 ;
415 [label=<transitTextWordsPerc &le; 0.894<br/>gini = 0.208<br/>samples = 17<br/>value = [0, 15, 2, 0]<br/>class = r>, fillcolor="#47e539dd"] ;
411 -> 415 ;
416 [label=<gini = 0.0<br/>samples = 10<br/>value = [0, 10, 0, 0]<br/>class = r>, fillcolor="#47e539ff"] ;
415 -> 416 ;
417 [label=<reviews_per_month &le; 0.205<br/>gini = 0.408<br/>samples = 7<br/>value = [0, 5, 2, 0]<br/>class = r>, fillcolor="#47e53999"] ;
415 -> 417 ;
418 [label=<gini = 0.0<br/>samples = 5<br/>value = [0, 5, 0, 0]<br/>class = r>, fillcolor="#47e539ff"] ;
417 -> 418 ;
419 [label=<gini = 0.0<br/>samples = 2<br/>value = [0, 0, 2, 0]<br/>class = i>, fillcolor="#399de5ff"] ;
417 -> 419 ;
420 [label=<bedrooms &le; 3.5<br/>gini = 0.485<br/>samples = 344<br/>value = [227, 96, 11, 10]<br/>class = P>, fillcolor="#e5813987"] ;
378 -> 420 ;
421 [label=<reviews_per_month &le; 0.785<br/>gini = 0.417<br/>samples = 286<br/>value = [208, 66, 8, 4]<br/>class = P>, fillcolor="#e58139a5"] ;
420 -> 421 ;
422 [label=<review_scores_rating &le; 77.5<br/>gini = 0.348<br/>samples = 169<br/>value = [134, 25, 6, 4]<br/>class = P>, fillcolor="#e58139c1"] ;
421 -> 422 ;
423 [label=<gini = 0.0<br/>samples = 3<br/>value = [0, 3, 0, 0]<br/>class = r>, fillcolor="#47e539ff"] ;
422 -> 423 ;
424 [label=<transitTextWordsPerc &le; 0.818<br/>gini = 0.329<br/>samples = 166<br/>value = [134, 22, 6, 4]<br/>class = P>, fillcolor="#e58139c6"] ;
422 -> 424 ;
425 [label=<transitTextWordsPerc &le; 0.8<br/>gini = 0.608<br/>samples = 24<br/>value = [13, 7, 2, 2]<br/>class = P>, fillcolor="#e581395a"] ;
424 -> 425 ;
426 [label=<transitTextWordsPerc &le; 0.738<br/>gini = 0.476<br/>samples = 19<br/>value = [13, 4, 2, 0]<br/>class = P>, fillcolor="#e5813999"] ;
425 -> 426 ;
427 [label=<transitTextWordsPerc &le; 0.661<br/>gini = 0.64<br/>samples = 10<br/>value = [4, 4, 2, 0]<br/>class = P>, fillcolor="#e5813900"] ;
426 -> 427 ;
428 [label=<gini = 0.0<br/>samples = 4<br/>value = [4, 0, 0, 0]<br/>class = P>, fillcolor="#e58139ff"] ;
427 -> 428 ;
429 [label=<review_scores_rating &le; 90.5<br/>gini = 0.444<br/>samples = 6<br/>value = [0, 4, 2, 0]<br/>class = r>, fillcolor="#47e5397f"] ;
427 -> 429 ;
430 [label=<gini = 0.0<br/>samples = 2<br/>value = [0, 0, 2, 0]<br/>class = i>, fillcolor="#399de5ff"] ;
429 -> 430 ;
431 [label=<gini = 0.0<br/>samples = 4<br/>value = [0, 4, 0, 0]<br/>class = r>, fillcolor="#47e539ff"] ;
429 -> 431 ;
432 [label=<gini = 0.0<br/>samples = 9<br/>value = [9, 0, 0, 0]<br/>class = P>, fillcolor="#e58139ff"] ;
426 -> 432 ;
433 [label=<transitTextWordsPerc &le; 0.815<br/>gini = 0.48<br/>samples = 5<br/>value = [0, 3, 0, 2]<br/>class = r>, fillcolor="#47e53955"] ;
425 -> 433 ;
434 [label=<gini = 0.0<br/>samples = 2<br/>value = [0, 0, 0, 2]<br/>class = c>, fillcolor="#d739e5ff"] ;
433 -> 434 ;
435 [label=<gini = 0.0<br/>samples = 3<br/>value = [0, 3, 0, 0]<br/>class = r>, fillcolor="#47e539ff"] ;
433 -> 435 ;
436 [label=<review_scores_rating &le; 99.0<br/>gini = 0.262<br/>samples = 142<br/>value = [121, 15, 4, 2]<br/>class = P>, fillcolor="#e58139d5"] ;
424 -> 436 ;
437 [label=<bathrooms &le; 1.75<br/>gini = 0.175<br/>samples = 96<br/>value = [87, 4, 4, 1]<br/>class = P>, fillcolor="#e58139e6"] ;
436 -> 437 ;
438 [label=<bathrooms &le; 1.25<br/>gini = 0.521<br/>samples = 13<br/>value = [8, 0, 4, 1]<br/>class = P>, fillcolor="#e5813971"] ;
437 -> 438 ;
439 [label=<transitTextWordsPerc &le; 0.876<br/>gini = 0.34<br/>samples = 10<br/>value = [8, 0, 1, 1]<br/>class = P>, fillcolor="#e58139c6"] ;
438 -> 439 ;
440 [label=<gini = 0.5<br/>samples = 2<br/>value = [0, 0, 1, 1]<br/>class = i>, fillcolor="#399de500"] ;
439 -> 440 ;
441 [label=<gini = 0.0<br/>samples = 8<br/>value = [8, 0, 0, 0]<br/>class = P>, fillcolor="#e58139ff"] ;
439 -> 441 ;
442 [label=<gini = 0.0<br/>samples = 3<br/>value = [0, 0, 3, 0]<br/>class = i>, fillcolor="#399de5ff"] ;
438 -> 442 ;
443 [label=<reviews_per_month &le; 0.555<br/>gini = 0.092<br/>samples = 83<br/>value = [79, 4, 0, 0]<br/>class = P>, fillcolor="#e58139f2"] ;
437 -> 443 ;
444 [label=<gini = 0.0<br/>samples = 53<br/>value = [53, 0, 0, 0]<br/>class = P>, fillcolor="#e58139ff"] ;
443 -> 444 ;
445 [label=<reviews_per_month &le; 0.595<br/>gini = 0.231<br/>samples = 30<br/>value = [26, 4, 0, 0]<br/>class = P>, fillcolor="#e58139d8"] ;
443 -> 445 ;
446 [label=<gini = 0.0<br/>samples = 2<br/>value = [0, 2, 0, 0]<br/>class = r>, fillcolor="#47e539ff"] ;
445 -> 446 ;
447 [label=<transitTextWordsPerc &le; 0.887<br/>gini = 0.133<br/>samples = 28<br/>value = [26, 2, 0, 0]<br/>class = P>, fillcolor="#e58139eb"] ;
445 -> 447 ;
448 [label=<transitTextWordsPerc &le; 0.879<br/>gini = 0.375<br/>samples = 8<br/>value = [6, 2, 0, 0]<br/>class = P>, fillcolor="#e58139aa"] ;
447 -> 448 ;
449 [label=<gini = 0.0<br/>samples = 6<br/>value = [6, 0, 0, 0]<br/>class = P>, fillcolor="#e58139ff"] ;
448 -> 449 ;
450 [label=<gini = 0.0<br/>samples = 2<br/>value = [0, 2, 0, 0]<br/>class = r>, fillcolor="#47e539ff"] ;
448 -> 450 ;
451 [label=<gini = 0.0<br/>samples = 20<br/>value = [20, 0, 0, 0]<br/>class = P>, fillcolor="#e58139ff"] ;
447 -> 451 ;
452 [label=<reviews_per_month &le; 0.44<br/>gini = 0.396<br/>samples = 46<br/>value = [34, 11, 0, 1]<br/>class = P>, fillcolor="#e58139a8"] ;
436 -> 452 ;
453 [label=<transitTextWordsPerc &le; 0.961<br/>gini = 0.543<br/>samples = 19<br/>value = [10, 8, 0, 1]<br/>class = P>, fillcolor="#e581392e"] ;
452 -> 453 ;
454 [label=<transitTextWordsPerc &le; 0.89<br/>gini = 0.462<br/>samples = 13<br/>value = [9, 3, 0, 1]<br/>class = P>, fillcolor="#e5813999"] ;
453 -> 454 ;
455 [label=<transitTextWordsPerc &le; 0.878<br/>gini = 0.375<br/>samples = 4<br/>value = [0, 3, 0, 1]<br/>class = r>, fillcolor="#47e539aa"] ;
454 -> 455 ;
456 [label=<gini = 0.0<br/>samples = 3<br/>value = [0, 3, 0, 0]<br/>class = r>, fillcolor="#47e539ff"] ;
455 -> 456 ;
457 [label=<gini = 0.0<br/>samples = 1<br/>value = [0, 0, 0, 1]<br/>class = c>, fillcolor="#d739e5ff"] ;
455 -> 457 ;
458 [label=<gini = 0.0<br/>samples = 9<br/>value = [9, 0, 0, 0]<br/>class = P>, fillcolor="#e58139ff"] ;
454 -> 458 ;
459 [label=<bathrooms &le; 1.5<br/>gini = 0.278<br/>samples = 6<br/>value = [1, 5, 0, 0]<br/>class = r>, fillcolor="#47e539cc"] ;
453 -> 459 ;
460 [label=<gini = 0.0<br/>samples = 1<br/>value = [1, 0, 0, 0]<br/>class = P>, fillcolor="#e58139ff"] ;
459 -> 460 ;
461 [label=<gini = 0.0<br/>samples = 5<br/>value = [0, 5, 0, 0]<br/>class = r>, fillcolor="#47e539ff"] ;
459 -> 461 ;
462 [label=<reviews_per_month &le; 0.605<br/>gini = 0.198<br/>samples = 27<br/>value = [24, 3, 0, 0]<br/>class = P>, fillcolor="#e58139df"] ;
452 -> 462 ;
463 [label=<gini = 0.0<br/>samples = 12<br/>value = [12, 0, 0, 0]<br/>class = P>, fillcolor="#e58139ff"] ;
462 -> 463 ;
464 [label=<reviews_per_month &le; 0.655<br/>gini = 0.32<br/>samples = 15<br/>value = [12, 3, 0, 0]<br/>class = P>, fillcolor="#e58139bf"] ;
462 -> 464 ;
465 [label=<gini = 0.0<br/>samples = 2<br/>value = [0, 2, 0, 0]<br/>class = r>, fillcolor="#47e539ff"] ;
464 -> 465 ;
466 [label=<reviews_per_month &le; 0.71<br/>gini = 0.142<br/>samples = 13<br/>value = [12, 1, 0, 0]<br/>class = P>, fillcolor="#e58139ea"] ;
464 -> 466 ;
467 [label=<reviews_per_month &le; 0.665<br/>gini = 0.32<br/>samples = 5<br/>value = [4, 1, 0, 0]<br/>class = P>, fillcolor="#e58139bf"] ;
466 -> 467 ;
468 [label=<gini = 0.0<br/>samples = 4<br/>value = [4, 0, 0, 0]<br/>class = P>, fillcolor="#e58139ff"] ;
467 -> 468 ;
469 [label=<gini = 0.0<br/>samples = 1<br/>value = [0, 1, 0, 0]<br/>class = r>, fillcolor="#47e539ff"] ;
467 -> 469 ;
470 [label=<gini = 0.0<br/>samples = 8<br/>value = [8, 0, 0, 0]<br/>class = P>, fillcolor="#e58139ff"] ;
466 -> 470 ;
471 [label=<reviews_per_month &le; 1.005<br/>gini = 0.477<br/>samples = 117<br/>value = [74, 41, 2, 0]<br/>class = P>, fillcolor="#e581396f"] ;
421 -> 471 ;
472 [label=<transitTextWordsPerc &le; 0.87<br/>gini = 0.529<br/>samples = 66<br/>value = [32, 32, 2, 0]<br/>class = P>, fillcolor="#e5813900"] ;
471 -> 472 ;
473 [label=<gini = 0.0<br/>samples = 6<br/>value = [6, 0, 0, 0]<br/>class = P>, fillcolor="#e58139ff"] ;
472 -> 473 ;
474 [label=<review_scores_rating &le; 70.0<br/>gini = 0.527<br/>samples = 60<br/>value = [26, 32, 2, 0]<br/>class = r>, fillcolor="#47e5392d"] ;
472 -> 474 ;
475 [label=<gini = 0.0<br/>samples = 2<br/>value = [0, 0, 2, 0]<br/>class = i>, fillcolor="#399de5ff"] ;
474 -> 475 ;
476 [label=<review_scores_rating &le; 98.5<br/>gini = 0.495<br/>samples = 58<br/>value = [26, 32, 0, 0]<br/>class = r>, fillcolor="#47e53930"] ;
474 -> 476 ;
477 [label=<review_scores_rating &le; 96.5<br/>gini = 0.494<br/>samples = 36<br/>value = [20, 16, 0, 0]<br/>class = P>, fillcolor="#e5813933"] ;
476 -> 477 ;
478 [label=<transitTextWordsPerc &le; 0.891<br/>gini = 0.495<br/>samples = 29<br/>value = [13, 16, 0, 0]<br/>class = r>, fillcolor="#47e53930"] ;
477 -> 478 ;
479 [label=<gini = 0.0<br/>samples = 6<br/>value = [0, 6, 0, 0]<br/>class = r>, fillcolor="#47e539ff"] ;
478 -> 479 ;
480 [label=<transitTextWordsPerc &le; 0.908<br/>gini = 0.491<br/>samples = 23<br/>value = [13, 10, 0, 0]<br/>class = P>, fillcolor="#e581393b"] ;
478 -> 480 ;
481 [label=<gini = 0.0<br/>samples = 7<br/>value = [7, 0, 0, 0]<br/>class = P>, fillcolor="#e58139ff"] ;
480 -> 481 ;
482 [label=<reviews_per_month &le; 0.845<br/>gini = 0.469<br/>samples = 16<br/>value = [6, 10, 0, 0]<br/>class = r>, fillcolor="#47e53966"] ;
480 -> 482 ;
483 [label=<gini = 0.0<br/>samples = 3<br/>value = [3, 0, 0, 0]<br/>class = P>, fillcolor="#e58139ff"] ;
482 -> 483 ;
484 [label=<bathrooms &le; 1.5<br/>gini = 0.355<br/>samples = 13<br/>value = [3, 10, 0, 0]<br/>class = r>, fillcolor="#47e539b3"] ;
482 -> 484 ;
485 [label=<gini = 0.0<br/>samples = 1<br/>value = [1, 0, 0, 0]<br/>class = P>, fillcolor="#e58139ff"] ;
484 -> 485 ;
486 [label=<reviews_per_month &le; 0.905<br/>gini = 0.278<br/>samples = 12<br/>value = [2, 10, 0, 0]<br/>class = r>, fillcolor="#47e539cc"] ;
484 -> 486 ;
487 [label=<gini = 0.0<br/>samples = 8<br/>value = [0, 8, 0, 0]<br/>class = r>, fillcolor="#47e539ff"] ;
486 -> 487 ;
488 [label=<transitTextWordsPerc &le; 0.926<br/>gini = 0.5<br/>samples = 4<br/>value = [2, 2, 0, 0]<br/>class = P>, fillcolor="#e5813900"] ;
486 -> 488 ;
489 [label=<gini = 0.0<br/>samples = 2<br/>value = [0, 2, 0, 0]<br/>class = r>, fillcolor="#47e539ff"] ;
488 -> 489 ;
490 [label=<gini = 0.0<br/>samples = 2<br/>value = [2, 0, 0, 0]<br/>class = P>, fillcolor="#e58139ff"] ;
488 -> 490 ;
491 [label=<gini = 0.0<br/>samples = 7<br/>value = [7, 0, 0, 0]<br/>class = P>, fillcolor="#e58139ff"] ;
477 -> 491 ;
492 [label=<bathrooms &le; 1.591<br/>gini = 0.397<br/>samples = 22<br/>value = [6, 16, 0, 0]<br/>class = r>, fillcolor="#47e5399f"] ;
476 -> 492 ;
493 [label=<gini = 0.0<br/>samples = 1<br/>value = [1, 0, 0, 0]<br/>class = P>, fillcolor="#e58139ff"] ;
492 -> 493 ;
494 [label=<transitTextWordsPerc &le; 0.903<br/>gini = 0.363<br/>samples = 21<br/>value = [5, 16, 0, 0]<br/>class = r>, fillcolor="#47e539af"] ;
492 -> 494 ;
495 [label=<gini = 0.0<br/>samples = 8<br/>value = [0, 8, 0, 0]<br/>class = r>, fillcolor="#47e539ff"] ;
494 -> 495 ;
496 [label=<transitTextWordsPerc &le; 0.921<br/>gini = 0.473<br/>samples = 13<br/>value = [5, 8, 0, 0]<br/>class = r>, fillcolor="#47e53960"] ;
494 -> 496 ;
497 [label=<gini = 0.0<br/>samples = 2<br/>value = [2, 0, 0, 0]<br/>class = P>, fillcolor="#e58139ff"] ;
496 -> 497 ;
498 [label=<bathrooms &le; 2.25<br/>gini = 0.397<br/>samples = 11<br/>value = [3, 8, 0, 0]<br/>class = r>, fillcolor="#47e5399f"] ;
496 -> 498 ;
499 [label=<gini = 0.0<br/>samples = 5<br/>value = [0, 5, 0, 0]<br/>class = r>, fillcolor="#47e539ff"] ;
498 -> 499 ;
500 [label=<transitTextWordsPerc &le; 0.967<br/>gini = 0.5<br/>samples = 6<br/>value = [3, 3, 0, 0]<br/>class = P>, fillcolor="#e5813900"] ;
498 -> 500 ;
501 [label=<gini = 0.0<br/>samples = 3<br/>value = [0, 3, 0, 0]<br/>class = r>, fillcolor="#47e539ff"] ;
500 -> 501 ;
502 [label=<gini = 0.0<br/>samples = 3<br/>value = [3, 0, 0, 0]<br/>class = P>, fillcolor="#e58139ff"] ;
500 -> 502 ;
503 [label=<transitTextWordsPerc &le; 0.949<br/>gini = 0.291<br/>samples = 51<br/>value = [42, 9, 0, 0]<br/>class = P>, fillcolor="#e58139c8"] ;
471 -> 503 ;
504 [label=<bathrooms &le; 2.25<br/>gini = 0.059<br/>samples = 33<br/>value = [32, 1, 0, 0]<br/>class = P>, fillcolor="#e58139f7"] ;
503 -> 504 ;
505 [label=<gini = 0.0<br/>samples = 29<br/>value = [29, 0, 0, 0]<br/>class = P>, fillcolor="#e58139ff"] ;
504 -> 505 ;
506 [label=<reviews_per_month &le; 1.17<br/>gini = 0.375<br/>samples = 4<br/>value = [3, 1, 0, 0]<br/>class = P>, fillcolor="#e58139aa"] ;
504 -> 506 ;
507 [label=<gini = 0.0<br/>samples = 3<br/>value = [3, 0, 0, 0]<br/>class = P>, fillcolor="#e58139ff"] ;
506 -> 507 ;
508 [label=<gini = 0.0<br/>samples = 1<br/>value = [0, 1, 0, 0]<br/>class = r>, fillcolor="#47e539ff"] ;
506 -> 508 ;
509 [label=<reviews_per_month &le; 1.16<br/>gini = 0.494<br/>samples = 18<br/>value = [10, 8, 0, 0]<br/>class = P>, fillcolor="#e5813933"] ;
503 -> 509 ;
510 [label=<gini = 0.0<br/>samples = 5<br/>value = [5, 0, 0, 0]<br/>class = P>, fillcolor="#e58139ff"] ;
509 -> 510 ;
511 [label=<reviews_per_month &le; 1.425<br/>gini = 0.473<br/>samples = 13<br/>value = [5, 8, 0, 0]<br/>class = r>, fillcolor="#47e53960"] ;
509 -> 511 ;
512 [label=<reviews_per_month &le; 1.325<br/>gini = 0.397<br/>samples = 11<br/>value = [3, 8, 0, 0]<br/>class = r>, fillcolor="#47e5399f"] ;
511 -> 512 ;
513 [label=<bathrooms &le; 2.25<br/>gini = 0.48<br/>samples = 5<br/>value = [3, 2, 0, 0]<br/>class = P>, fillcolor="#e5813955"] ;
512 -> 513 ;
514 [label=<gini = 0.0<br/>samples = 3<br/>value = [3, 0, 0, 0]<br/>class = P>, fillcolor="#e58139ff"] ;
513 -> 514 ;
515 [label=<gini = 0.0<br/>samples = 2<br/>value = [0, 2, 0, 0]<br/>class = r>, fillcolor="#47e539ff"] ;
513 -> 515 ;
516 [label=<gini = 0.0<br/>samples = 6<br/>value = [0, 6, 0, 0]<br/>class = r>, fillcolor="#47e539ff"] ;
512 -> 516 ;
517 [label=<gini = 0.0<br/>samples = 2<br/>value = [2, 0, 0, 0]<br/>class = P>, fillcolor="#e58139ff"] ;
511 -> 517 ;
518 [label=<review_scores_rating &le; 92.86<br/>gini = 0.612<br/>samples = 58<br/>value = [19, 30, 3, 6]<br/>class = r>, fillcolor="#47e53948"] ;
420 -> 518 ;
519 [label=<transitTextWordsPerc &le; 0.838<br/>gini = 0.449<br/>samples = 14<br/>value = [10, 2, 0, 2]<br/>class = P>, fillcolor="#e58139aa"] ;
518 -> 519 ;
520 [label=<gini = 0.0<br/>samples = 2<br/>value = [0, 2, 0, 0]<br/>class = r>, fillcolor="#47e539ff"] ;
519 -> 520 ;
521 [label=<reviews_per_month &le; 0.595<br/>gini = 0.278<br/>samples = 12<br/>value = [10, 0, 0, 2]<br/>class = P>, fillcolor="#e58139cc"] ;
519 -> 521 ;
522 [label=<reviews_per_month &le; 0.38<br/>gini = 0.5<br/>samples = 4<br/>value = [2, 0, 0, 2]<br/>class = P>, fillcolor="#e5813900"] ;
521 -> 522 ;
523 [label=<gini = 0.0<br/>samples = 2<br/>value = [2, 0, 0, 0]<br/>class = P>, fillcolor="#e58139ff"] ;
522 -> 523 ;
524 [label=<gini = 0.0<br/>samples = 2<br/>value = [0, 0, 0, 2]<br/>class = c>, fillcolor="#d739e5ff"] ;
522 -> 524 ;
525 [label=<gini = 0.0<br/>samples = 8<br/>value = [8, 0, 0, 0]<br/>class = P>, fillcolor="#e58139ff"] ;
521 -> 525 ;
526 [label=<transitTextWordsPerc &le; 0.845<br/>gini = 0.54<br/>samples = 44<br/>value = [9, 28, 3, 4]<br/>class = r>, fillcolor="#47e5398a"] ;
518 -> 526 ;
527 [label=<transitTextWordsPerc &le; 0.83<br/>gini = 0.494<br/>samples = 9<br/>value = [5, 0, 0, 4]<br/>class = P>, fillcolor="#e5813933"] ;
526 -> 527 ;
528 [label=<bathrooms &le; 2.25<br/>gini = 0.444<br/>samples = 6<br/>value = [2, 0, 0, 4]<br/>class = c>, fillcolor="#d739e57f"] ;
527 -> 528 ;
529 [label=<gini = 0.0<br/>samples = 4<br/>value = [0, 0, 0, 4]<br/>class = c>, fillcolor="#d739e5ff"] ;
528 -> 529 ;
530 [label=<gini = 0.0<br/>samples = 2<br/>value = [2, 0, 0, 0]<br/>class = P>, fillcolor="#e58139ff"] ;
528 -> 530 ;
531 [label=<gini = 0.0<br/>samples = 3<br/>value = [3, 0, 0, 0]<br/>class = P>, fillcolor="#e58139ff"] ;
527 -> 531 ;
532 [label=<reviews_per_month &le; 0.43<br/>gini = 0.34<br/>samples = 35<br/>value = [4, 28, 3, 0]<br/>class = r>, fillcolor="#47e539c5"] ;
526 -> 532 ;
533 [label=<transitTextWordsPerc &le; 0.958<br/>gini = 0.463<br/>samples = 11<br/>value = [4, 7, 0, 0]<br/>class = r>, fillcolor="#47e5396d"] ;
532 -> 533 ;
534 [label=<gini = 0.0<br/>samples = 6<br/>value = [0, 6, 0, 0]<br/>class = r>, fillcolor="#47e539ff"] ;
533 -> 534 ;
535 [label=<reviews_per_month &le; 0.305<br/>gini = 0.32<br/>samples = 5<br/>value = [4, 1, 0, 0]<br/>class = P>, fillcolor="#e58139bf"] ;
533 -> 535 ;
536 [label=<gini = 0.0<br/>samples = 1<br/>value = [0, 1, 0, 0]<br/>class = r>, fillcolor="#47e539ff"] ;
535 -> 536 ;
537 [label=<gini = 0.0<br/>samples = 4<br/>value = [4, 0, 0, 0]<br/>class = P>, fillcolor="#e58139ff"] ;
535 -> 537 ;
538 [label=<transitTextWordsPerc &le; 0.883<br/>gini = 0.219<br/>samples = 24<br/>value = [0, 21, 3, 0]<br/>class = r>, fillcolor="#47e539db"] ;
532 -> 538 ;
539 [label=<gini = 0.0<br/>samples = 1<br/>value = [0, 0, 1, 0]<br/>class = i>, fillcolor="#399de5ff"] ;
538 -> 539 ;
540 [label=<reviews_per_month &le; 0.975<br/>gini = 0.159<br/>samples = 23<br/>value = [0, 21, 2, 0]<br/>class = r>, fillcolor="#47e539e7"] ;
538 -> 540 ;
541 [label=<gini = 0.0<br/>samples = 18<br/>value = [0, 18, 0, 0]<br/>class = r>, fillcolor="#47e539ff"] ;
540 -> 541 ;
542 [label=<transitTextWordsPerc &le; 0.966<br/>gini = 0.48<br/>samples = 5<br/>value = [0, 3, 2, 0]<br/>class = r>, fillcolor="#47e53955"] ;
540 -> 542 ;
543 [label=<gini = 0.0<br/>samples = 2<br/>value = [0, 0, 2, 0]<br/>class = i>, fillcolor="#399de5ff"] ;
542 -> 543 ;
544 [label=<gini = 0.0<br/>samples = 3<br/>value = [0, 3, 0, 0]<br/>class = r>, fillcolor="#47e539ff"] ;
542 -> 544 ;
545 [label=<reviews_per_month &le; 2.255<br/>gini = 0.551<br/>samples = 263<br/>value = [109, 138, 11, 5]<br/>class = r>, fillcolor="#47e53930"] ;
377 -> 545 ;
546 [label=<reviews_per_month &le; 1.657<br/>gini = 0.555<br/>samples = 256<br/>value = [109, 131, 11, 5]<br/>class = r>, fillcolor="#47e53926"] ;
545 -> 546 ;
547 [label=<transitTextWordsPerc &le; 0.844<br/>gini = 0.559<br/>samples = 205<br/>value = [78, 111, 11, 5]<br/>class = r>, fillcolor="#47e53942"] ;
546 -> 547 ;
548 [label=<gini = 0.0<br/>samples = 13<br/>value = [0, 13, 0, 0]<br/>class = r>, fillcolor="#47e539ff"] ;
547 -> 548 ;
549 [label=<transitTextWordsPerc &le; 0.891<br/>gini = 0.57<br/>samples = 192<br/>value = [78, 98, 11, 5]<br/>class = r>, fillcolor="#47e5392d"] ;
547 -> 549 ;
550 [label=<transitTextWordsPerc &le; 0.885<br/>gini = 0.542<br/>samples = 29<br/>value = [18, 6, 5, 0]<br/>class = P>, fillcolor="#e5813985"] ;
549 -> 550 ;
551 [label=<transitTextWordsPerc &le; 0.854<br/>gini = 0.664<br/>samples = 17<br/>value = [6, 6, 5, 0]<br/>class = P>, fillcolor="#e5813900"] ;
550 -> 551 ;
552 [label=<gini = 0.0<br/>samples = 4<br/>value = [4, 0, 0, 0]<br/>class = P>, fillcolor="#e58139ff"] ;
551 -> 552 ;
553 [label=<bathrooms &le; 2.25<br/>gini = 0.615<br/>samples = 13<br/>value = [2, 6, 5, 0]<br/>class = r>, fillcolor="#47e53920"] ;
551 -> 553 ;
554 [label=<transitTextWordsPerc &le; 0.864<br/>gini = 0.595<br/>samples = 11<br/>value = [2, 6, 3, 0]<br/>class = r>, fillcolor="#47e53960"] ;
553 -> 554 ;
555 [label=<bedrooms &le; 3.5<br/>gini = 0.48<br/>samples = 5<br/>value = [0, 2, 3, 0]<br/>class = i>, fillcolor="#399de555"] ;
554 -> 555 ;
556 [label=<gini = 0.0<br/>samples = 3<br/>value = [0, 0, 3, 0]<br/>class = i>, fillcolor="#399de5ff"] ;
555 -> 556 ;
557 [label=<gini = 0.0<br/>samples = 2<br/>value = [0, 2, 0, 0]<br/>class = r>, fillcolor="#47e539ff"] ;
555 -> 557 ;
558 [label=<transitTextWordsPerc &le; 0.872<br/>gini = 0.444<br/>samples = 6<br/>value = [2, 4, 0, 0]<br/>class = r>, fillcolor="#47e5397f"] ;
554 -> 558 ;
559 [label=<gini = 0.0<br/>samples = 1<br/>value = [1, 0, 0, 0]<br/>class = P>, fillcolor="#e58139ff"] ;
558 -> 559 ;
560 [label=<transitTextWordsPerc &le; 0.874<br/>gini = 0.32<br/>samples = 5<br/>value = [1, 4, 0, 0]<br/>class = r>, fillcolor="#47e539bf"] ;
558 -> 560 ;
561 [label=<gini = 0.0<br/>samples = 3<br/>value = [0, 3, 0, 0]<br/>class = r>, fillcolor="#47e539ff"] ;
560 -> 561 ;
562 [label=<bedrooms &le; 3.5<br/>gini = 0.5<br/>samples = 2<br/>value = [1, 1, 0, 0]<br/>class = P>, fillcolor="#e5813900"] ;
560 -> 562 ;
563 [label=<gini = 0.0<br/>samples = 1<br/>value = [1, 0, 0, 0]<br/>class = P>, fillcolor="#e58139ff"] ;
562 -> 563 ;
564 [label=<gini = 0.0<br/>samples = 1<br/>value = [0, 1, 0, 0]<br/>class = r>, fillcolor="#47e539ff"] ;
562 -> 564 ;
565 [label=<gini = 0.0<br/>samples = 2<br/>value = [0, 0, 2, 0]<br/>class = i>, fillcolor="#399de5ff"] ;
553 -> 565 ;
566 [label=<gini = 0.0<br/>samples = 12<br/>value = [12, 0, 0, 0]<br/>class = P>, fillcolor="#e58139ff"] ;
550 -> 566 ;
567 [label=<bathrooms &le; 1.25<br/>gini = 0.544<br/>samples = 163<br/>value = [60, 92, 6, 5]<br/>class = r>, fillcolor="#47e5394f"] ;
549 -> 567 ;
568 [label=<gini = 0.0<br/>samples = 7<br/>value = [7, 0, 0, 0]<br/>class = P>, fillcolor="#e58139ff"] ;
567 -> 568 ;
569 [label=<transitTextWordsPerc &le; 0.903<br/>gini = 0.534<br/>samples = 156<br/>value = [53, 92, 6, 5]<br/>class = r>, fillcolor="#47e53961"] ;
567 -> 569 ;
570 [label=<gini = 0.0<br/>samples = 8<br/>value = [0, 8, 0, 0]<br/>class = r>, fillcolor="#47e539ff"] ;
569 -> 570 ;
571 [label=<transitTextWordsPerc &le; 0.913<br/>gini = 0.547<br/>samples = 148<br/>value = [53, 84, 6, 5]<br/>class = r>, fillcolor="#47e53953"] ;
569 -> 571 ;
572 [label=<gini = 0.0<br/>samples = 3<br/>value = [3, 0, 0, 0]<br/>class = P>, fillcolor="#e58139ff"] ;
571 -> 572 ;
573 [label=<transitTextWordsPerc &le; 0.92<br/>gini = 0.543<br/>samples = 145<br/>value = [50, 84, 6, 5]<br/>class = r>, fillcolor="#47e5395b"] ;
571 -> 573 ;
574 [label=<gini = 0.0<br/>samples = 7<br/>value = [0, 7, 0, 0]<br/>class = r>, fillcolor="#47e539ff"] ;
573 -> 574 ;
575 [label=<reviews_per_month &le; 1.505<br/>gini = 0.554<br/>samples = 138<br/>value = [50, 77, 6, 5]<br/>class = r>, fillcolor="#47e5394e"] ;
573 -> 575 ;
576 [label=<gini = 0.0<br/>samples = 3<br/>value = [3, 0, 0, 0]<br/>class = P>, fillcolor="#e58139ff"] ;
575 -> 576 ;
577 [label=<transitTextWordsPerc &le; 0.928<br/>gini = 0.55<br/>samples = 135<br/>value = [47, 77, 6, 5]<br/>class = r>, fillcolor="#47e53957"] ;
575 -> 577 ;
578 [label=<bathrooms &le; 2.25<br/>gini = 0.408<br/>samples = 7<br/>value = [5, 2, 0, 0]<br/>class = P>, fillcolor="#e5813999"] ;
577 -> 578 ;
579 [label=<gini = 0.0<br/>samples = 5<br/>value = [5, 0, 0, 0]<br/>class = P>, fillcolor="#e58139ff"] ;
578 -> 579 ;
580 [label=<gini = 0.0<br/>samples = 2<br/>value = [0, 2, 0, 0]<br/>class = r>, fillcolor="#47e539ff"] ;
578 -> 580 ;
581 [label=<transitTextWordsPerc &le; 0.979<br/>gini = 0.545<br/>samples = 128<br/>value = [42, 75, 6, 5]<br/>class = r>, fillcolor="#47e53962"] ;
577 -> 581 ;
582 [label=<transitTextWordsPerc &le; 0.945<br/>gini = 0.469<br/>samples = 8<br/>value = [0, 5, 0, 3]<br/>class = r>, fillcolor="#47e53966"] ;
581 -> 582 ;
583 [label=<gini = 0.0<br/>samples = 5<br/>value = [0, 5, 0, 0]<br/>class = r>, fillcolor="#47e539ff"] ;
582 -> 583 ;
584 [label=<gini = 0.0<br/>samples = 3<br/>value = [0, 0, 0, 3]<br/>class = c>, fillcolor="#d739e5ff"] ;
582 -> 584 ;
585 [label=<square_feet &le; 1517.074<br/>gini = 0.534<br/>samples = 120<br/>value = [42, 70, 6, 2]<br/>class = r>, fillcolor="#47e5395c"] ;
581 -> 585 ;
586 [label=<bathrooms &le; 2.25<br/>gini = 0.53<br/>samples = 118<br/>value = [40, 70, 6, 2]<br/>class = r>, fillcolor="#47e53962"] ;
585 -> 586 ;
587 [label=<bedrooms &le; 4.5<br/>gini = 0.471<br/>samples = 79<br/>value = [30, 49, 0, 0]<br/>class = r>, fillcolor="#47e53963"] ;
586 -> 587 ;
588 [label=<bathrooms &le; 1.75<br/>gini = 0.48<br/>samples = 75<br/>value = [30, 45, 0, 0]<br/>class = r>, fillcolor="#47e53955"] ;
587 -> 588 ;
589 [label=<gini = 0.0<br/>samples = 3<br/>value = [0, 3, 0, 0]<br/>class = r>, fillcolor="#47e539ff"] ;
588 -> 589 ;
590 [label=<bedrooms &le; 3.5<br/>gini = 0.486<br/>samples = 72<br/>value = [30, 42, 0, 0]<br/>class = r>, fillcolor="#47e53949"] ;
588 -> 590 ;
591 [label=<gini = 0.49<br/>samples = 49<br/>value = [21, 28, 0, 0]<br/>class = r>, fillcolor="#47e53940"] ;
590 -> 591 ;
592 [label=<gini = 0.476<br/>samples = 23<br/>value = [9, 14, 0, 0]<br/>class = r>, fillcolor="#47e5395b"] ;
590 -> 592 ;
593 [label=<gini = 0.0<br/>samples = 4<br/>value = [0, 4, 0, 0]<br/>class = r>, fillcolor="#47e539ff"] ;
587 -> 593 ;
594 [label=<reviews_per_month &le; 1.597<br/>gini = 0.618<br/>samples = 39<br/>value = [10, 21, 6, 2]<br/>class = r>, fillcolor="#47e53961"] ;
586 -> 594 ;
595 [label=<gini = 0.0<br/>samples = 1<br/>value = [1, 0, 0, 0]<br/>class = P>, fillcolor="#e58139ff"] ;
594 -> 595 ;
596 [label=<bedrooms &le; 3.5<br/>gini = 0.611<br/>samples = 38<br/>value = [9, 21, 6, 2]<br/>class = r>, fillcolor="#47e5396a"] ;
594 -> 596 ;
597 [label=<gini = 0.63<br/>samples = 25<br/>value = [7, 13, 3, 2]<br/>class = r>, fillcolor="#47e53955"] ;
596 -> 597 ;
598 [label=<gini = 0.544<br/>samples = 13<br/>value = [2, 8, 3, 0]<br/>class = r>, fillcolor="#47e53980"] ;
596 -> 598 ;
599 [label=<gini = 0.0<br/>samples = 2<br/>value = [2, 0, 0, 0]<br/>class = P>, fillcolor="#e58139ff"] ;
585 -> 599 ;
600 [label=<transitTextWordsPerc &le; 0.987<br/>gini = 0.477<br/>samples = 51<br/>value = [31, 20, 0, 0]<br/>class = P>, fillcolor="#e581395a"] ;
546 -> 600 ;
601 [label=<bedrooms &le; 4.5<br/>gini = 0.414<br/>samples = 41<br/>value = [29, 12, 0, 0]<br/>class = P>, fillcolor="#e5813995"] ;
600 -> 601 ;
602 [label=<transitTextWordsPerc &le; 0.855<br/>gini = 0.298<br/>samples = 33<br/>value = [27, 6, 0, 0]<br/>class = P>, fillcolor="#e58139c6"] ;
601 -> 602 ;
603 [label=<bathrooms &le; 1.75<br/>gini = 0.444<br/>samples = 15<br/>value = [10, 5, 0, 0]<br/>class = P>, fillcolor="#e581397f"] ;
602 -> 603 ;
604 [label=<gini = 0.0<br/>samples = 6<br/>value = [6, 0, 0, 0]<br/>class = P>, fillcolor="#e58139ff"] ;
603 -> 604 ;
605 [label=<transitTextWordsPerc &le; 0.809<br/>gini = 0.494<br/>samples = 9<br/>value = [4, 5, 0, 0]<br/>class = r>, fillcolor="#47e53933"] ;
603 -> 605 ;
606 [label=<reviews_per_month &le; 1.9<br/>gini = 0.444<br/>samples = 6<br/>value = [4, 2, 0, 0]<br/>class = P>, fillcolor="#e581397f"] ;
605 -> 606 ;
607 [label=<gini = 0.0<br/>samples = 2<br/>value = [0, 2, 0, 0]<br/>class = r>, fillcolor="#47e539ff"] ;
606 -> 607 ;
608 [label=<gini = 0.0<br/>samples = 4<br/>value = [4, 0, 0, 0]<br/>class = P>, fillcolor="#e58139ff"] ;
606 -> 608 ;
609 [label=<gini = 0.0<br/>samples = 3<br/>value = [0, 3, 0, 0]<br/>class = r>, fillcolor="#47e539ff"] ;
605 -> 609 ;
610 [label=<bathrooms &le; 2.25<br/>gini = 0.105<br/>samples = 18<br/>value = [17, 1, 0, 0]<br/>class = P>, fillcolor="#e58139f0"] ;
602 -> 610 ;
611 [label=<gini = 0.0<br/>samples = 14<br/>value = [14, 0, 0, 0]<br/>class = P>, fillcolor="#e58139ff"] ;
610 -> 611 ;
612 [label=<bedrooms &le; 3.5<br/>gini = 0.375<br/>samples = 4<br/>value = [3, 1, 0, 0]<br/>class = P>, fillcolor="#e58139aa"] ;
610 -> 612 ;
613 [label=<gini = 0.0<br/>samples = 1<br/>value = [0, 1, 0, 0]<br/>class = r>, fillcolor="#47e539ff"] ;
612 -> 613 ;
614 [label=<gini = 0.0<br/>samples = 3<br/>value = [3, 0, 0, 0]<br/>class = P>, fillcolor="#e58139ff"] ;
612 -> 614 ;
615 [label=<review_scores_rating &le; 76.5<br/>gini = 0.375<br/>samples = 8<br/>value = [2, 6, 0, 0]<br/>class = r>, fillcolor="#47e539aa"] ;
601 -> 615 ;
616 [label=<gini = 0.0<br/>samples = 2<br/>value = [2, 0, 0, 0]<br/>class = P>, fillcolor="#e58139ff"] ;
615 -> 616 ;
617 [label=<gini = 0.0<br/>samples = 6<br/>value = [0, 6, 0, 0]<br/>class = r>, fillcolor="#47e539ff"] ;
615 -> 617 ;
618 [label=<reviews_per_month &le; 2.075<br/>gini = 0.32<br/>samples = 10<br/>value = [2, 8, 0, 0]<br/>class = r>, fillcolor="#47e539bf"] ;
600 -> 618 ;
619 [label=<gini = 0.0<br/>samples = 8<br/>value = [0, 8, 0, 0]<br/>class = r>, fillcolor="#47e539ff"] ;
618 -> 619 ;
620 [label=<gini = 0.0<br/>samples = 2<br/>value = [2, 0, 0, 0]<br/>class = P>, fillcolor="#e58139ff"] ;
618 -> 620 ;
621 [label=<gini = 0.0<br/>samples = 7<br/>value = [0, 7, 0, 0]<br/>class = r>, fillcolor="#47e539ff"] ;
545 -> 621 ;
622 [label=<reviews_per_month &le; 1.155<br/>gini = 0.666<br/>samples = 325<br/>value = [89, 154, 52, 30]<br/>class = r>, fillcolor="#47e53946"] ;
376 -> 622 ;
623 [label=<transitTextWordsPerc &le; 0.865<br/>gini = 0.663<br/>samples = 202<br/>value = [79, 81, 27, 15]<br/>class = r>, fillcolor="#47e53904"] ;
622 -> 623 ;
624 [label=<review_scores_rating &le; 99.5<br/>gini = 0.417<br/>samples = 22<br/>value = [16, 5, 1, 0]<br/>class = P>, fillcolor="#e58139a5"] ;
623 -> 624 ;
625 [label=<gini = 0.0<br/>samples = 16<br/>value = [16, 0, 0, 0]<br/>class = P>, fillcolor="#e58139ff"] ;
624 -> 625 ;
626 [label=<transitTextWordsPerc &le; 0.684<br/>gini = 0.278<br/>samples = 6<br/>value = [0, 5, 1, 0]<br/>class = r>, fillcolor="#47e539cc"] ;
624 -> 626 ;
627 [label=<gini = 0.0<br/>samples = 2<br/>value = [0, 2, 0, 0]<br/>class = r>, fillcolor="#47e539ff"] ;
626 -> 627 ;
628 [label=<gini = 0.375<br/>samples = 4<br/>value = [0, 3, 1, 0]<br/>class = r>, fillcolor="#47e539aa"] ;
626 -> 628 ;
629 [label=<transitTextWordsPerc &le; 0.896<br/>gini = 0.671<br/>samples = 180<br/>value = [63, 76, 26, 15]<br/>class = r>, fillcolor="#47e5391c"] ;
623 -> 629 ;
630 [label=<review_scores_rating &le; 95.0<br/>gini = 0.722<br/>samples = 23<br/>value = [3, 5, 8, 7]<br/>class = i>, fillcolor="#399de510"] ;
629 -> 630 ;
631 [label=<gini = 0.0<br/>samples = 7<br/>value = [0, 0, 7, 0]<br/>class = i>, fillcolor="#399de5ff"] ;
630 -> 631 ;
632 [label=<reviews_per_month &le; 0.475<br/>gini = 0.672<br/>samples = 16<br/>value = [3, 5, 1, 7]<br/>class = c>, fillcolor="#d739e52e"] ;
630 -> 632 ;
633 [label=<reviews_per_month &le; 0.29<br/>gini = 0.667<br/>samples = 9<br/>value = [3, 4, 1, 1]<br/>class = r>, fillcolor="#47e5392a"] ;
632 -> 633 ;
634 [label=<transitTextWordsPerc &le; 0.892<br/>gini = 0.56<br/>samples = 5<br/>value = [3, 0, 1, 1]<br/>class = P>, fillcolor="#e581397f"] ;
633 -> 634 ;
635 [label=<gini = 0.0<br/>samples = 3<br/>value = [3, 0, 0, 0]<br/>class = P>, fillcolor="#e58139ff"] ;
634 -> 635 ;
636 [label=<bedrooms &le; 3.5<br/>gini = 0.5<br/>samples = 2<br/>value = [0, 0, 1, 1]<br/>class = i>, fillcolor="#399de500"] ;
634 -> 636 ;
637 [label=<gini = 0.0<br/>samples = 1<br/>value = [0, 0, 0, 1]<br/>class = c>, fillcolor="#d739e5ff"] ;
636 -> 637 ;
638 [label=<gini = 0.0<br/>samples = 1<br/>value = [0, 0, 1, 0]<br/>class = i>, fillcolor="#399de5ff"] ;
636 -> 638 ;
639 [label=<gini = 0.0<br/>samples = 4<br/>value = [0, 4, 0, 0]<br/>class = r>, fillcolor="#47e539ff"] ;
633 -> 639 ;
640 [label=<review_scores_rating &le; 98.0<br/>gini = 0.245<br/>samples = 7<br/>value = [0, 1, 0, 6]<br/>class = c>, fillcolor="#d739e5d4"] ;
632 -> 640 ;
641 [label=<gini = 0.0<br/>samples = 1<br/>value = [0, 1, 0, 0]<br/>class = r>, fillcolor="#47e539ff"] ;
640 -> 641 ;
642 [label=<gini = 0.0<br/>samples = 6<br/>value = [0, 0, 0, 6]<br/>class = c>, fillcolor="#d739e5ff"] ;
640 -> 642 ;
643 [label=<reviews_per_month &le; 0.165<br/>gini = 0.634<br/>samples = 157<br/>value = [60, 71, 18, 8]<br/>class = r>, fillcolor="#47e5391d"] ;
629 -> 643 ;
644 [label=<reviews_per_month &le; 0.08<br/>gini = 0.722<br/>samples = 23<br/>value = [5, 5, 9, 4]<br/>class = i>, fillcolor="#399de539"] ;
643 -> 644 ;
645 [label=<gini = 0.0<br/>samples = 5<br/>value = [0, 5, 0, 0]<br/>class = r>, fillcolor="#47e539ff"] ;
644 -> 645 ;
646 [label=<bedrooms &le; 4.5<br/>gini = 0.623<br/>samples = 18<br/>value = [5, 0, 9, 4]<br/>class = i>, fillcolor="#399de54e"] ;
644 -> 646 ;
647 [label=<reviews_per_month &le; 0.14<br/>gini = 0.459<br/>samples = 14<br/>value = [5, 0, 9, 0]<br/>class = i>, fillcolor="#399de571"] ;
646 -> 647 ;
648 [label=<reviews_per_month &le; 0.11<br/>gini = 0.496<br/>samples = 11<br/>value = [5, 0, 6, 0]<br/>class = i>, fillcolor="#399de52a"] ;
647 -> 648 ;
649 [label=<review_scores_rating &le; 85.0<br/>gini = 0.444<br/>samples = 9<br/>value = [3, 0, 6, 0]<br/>class = i>, fillcolor="#399de57f"] ;
648 -> 649 ;
650 [label=<gini = 0.0<br/>samples = 1<br/>value = [1, 0, 0, 0]<br/>class = P>, fillcolor="#e58139ff"] ;
649 -> 650 ;
651 [label=<bedrooms &le; 3.5<br/>gini = 0.375<br/>samples = 8<br/>value = [2, 0, 6, 0]<br/>class = i>, fillcolor="#399de5aa"] ;
649 -> 651 ;
652 [label=<reviews_per_month &le; 0.095<br/>gini = 0.5<br/>samples = 4<br/>value = [2, 0, 2, 0]<br/>class = P>, fillcolor="#e5813900"] ;
651 -> 652 ;
653 [label=<gini = 0.0<br/>samples = 2<br/>value = [2, 0, 0, 0]<br/>class = P>, fillcolor="#e58139ff"] ;
652 -> 653 ;
654 [label=<gini = 0.0<br/>samples = 2<br/>value = [0, 0, 2, 0]<br/>class = i>, fillcolor="#399de5ff"] ;
652 -> 654 ;
655 [label=<gini = 0.0<br/>samples = 4<br/>value = [0, 0, 4, 0]<br/>class = i>, fillcolor="#399de5ff"] ;
651 -> 655 ;
656 [label=<gini = 0.0<br/>samples = 2<br/>value = [2, 0, 0, 0]<br/>class = P>, fillcolor="#e58139ff"] ;
648 -> 656 ;
657 [label=<gini = 0.0<br/>samples = 3<br/>value = [0, 0, 3, 0]<br/>class = i>, fillcolor="#399de5ff"] ;
647 -> 657 ;
658 [label=<gini = 0.0<br/>samples = 4<br/>value = [0, 0, 0, 4]<br/>class = c>, fillcolor="#d739e5ff"] ;
646 -> 658 ;
659 [label=<review_scores_rating &le; 95.5<br/>gini = 0.584<br/>samples = 134<br/>value = [55, 66, 9, 4]<br/>class = r>, fillcolor="#47e53924"] ;
643 -> 659 ;
660 [label=<reviews_per_month &le; 0.83<br/>gini = 0.565<br/>samples = 82<br/>value = [41, 35, 4, 2]<br/>class = P>, fillcolor="#e5813921"] ;
659 -> 660 ;
661 [label=<reviews_per_month &le; 0.34<br/>gini = 0.554<br/>samples = 56<br/>value = [33, 17, 4, 2]<br/>class = P>, fillcolor="#e5813969"] ;
660 -> 661 ;
662 [label=<transitTextWordsPerc &le; 0.95<br/>gini = 0.531<br/>samples = 8<br/>value = [1, 5, 0, 2]<br/>class = r>, fillcolor="#47e53980"] ;
661 -> 662 ;
663 [label=<gini = 0.0<br/>samples = 2<br/>value = [0, 0, 0, 2]<br/>class = c>, fillcolor="#d739e5ff"] ;
662 -> 663 ;
664 [label=<reviews_per_month &le; 0.215<br/>gini = 0.278<br/>samples = 6<br/>value = [1, 5, 0, 0]<br/>class = r>, fillcolor="#47e539cc"] ;
662 -> 664 ;
665 [label=<gini = 0.0<br/>samples = 1<br/>value = [1, 0, 0, 0]<br/>class = P>, fillcolor="#e58139ff"] ;
664 -> 665 ;
666 [label=<gini = 0.0<br/>samples = 5<br/>value = [0, 5, 0, 0]<br/>class = r>, fillcolor="#47e539ff"] ;
664 -> 666 ;
667 [label=<reviews_per_month &le; 0.755<br/>gini = 0.486<br/>samples = 48<br/>value = [32, 12, 4, 0]<br/>class = P>, fillcolor="#e581398e"] ;
661 -> 667 ;
668 [label=<reviews_per_month &le; 0.46<br/>gini = 0.438<br/>samples = 37<br/>value = [25, 12, 0, 0]<br/>class = P>, fillcolor="#e5813985"] ;
667 -> 668 ;
669 [label=<review_scores_rating &le; 73.5<br/>gini = 0.255<br/>samples = 20<br/>value = [17, 3, 0, 0]<br/>class = P>, fillcolor="#e58139d2"] ;
668 -> 669 ;
670 [label=<review_scores_rating &le; 62.5<br/>gini = 0.5<br/>samples = 6<br/>value = [3, 3, 0, 0]<br/>class = P>, fillcolor="#e5813900"] ;
669 -> 670 ;
671 [label=<gini = 0.0<br/>samples = 3<br/>value = [3, 0, 0, 0]<br/>class = P>, fillcolor="#e58139ff"] ;
670 -> 671 ;
672 [label=<gini = 0.0<br/>samples = 3<br/>value = [0, 3, 0, 0]<br/>class = r>, fillcolor="#47e539ff"] ;
670 -> 672 ;
673 [label=<gini = 0.0<br/>samples = 14<br/>value = [14, 0, 0, 0]<br/>class = P>, fillcolor="#e58139ff"] ;
669 -> 673 ;
674 [label=<transitTextWordsPerc &le; 0.971<br/>gini = 0.498<br/>samples = 17<br/>value = [8, 9, 0, 0]<br/>class = r>, fillcolor="#47e5391c"] ;
668 -> 674 ;
675 [label=<bedrooms &le; 4.0<br/>gini = 0.375<br/>samples = 8<br/>value = [6, 2, 0, 0]<br/>class = P>, fillcolor="#e58139aa"] ;
674 -> 675 ;
676 [label=<gini = 0.0<br/>samples = 6<br/>value = [6, 0, 0, 0]<br/>class = P>, fillcolor="#e58139ff"] ;
675 -> 676 ;
677 [label=<gini = 0.0<br/>samples = 2<br/>value = [0, 2, 0, 0]<br/>class = r>, fillcolor="#47e539ff"] ;
675 -> 677 ;
678 [label=<reviews_per_month &le; 0.67<br/>gini = 0.346<br/>samples = 9<br/>value = [2, 7, 0, 0]<br/>class = r>, fillcolor="#47e539b6"] ;
674 -> 678 ;
679 [label=<gini = 0.0<br/>samples = 7<br/>value = [0, 7, 0, 0]<br/>class = r>, fillcolor="#47e539ff"] ;
678 -> 679 ;
680 [label=<gini = 0.0<br/>samples = 2<br/>value = [2, 0, 0, 0]<br/>class = P>, fillcolor="#e58139ff"] ;
678 -> 680 ;
681 [label=<reviews_per_month &le; 0.78<br/>gini = 0.463<br/>samples = 11<br/>value = [7, 0, 4, 0]<br/>class = P>, fillcolor="#e581396d"] ;
667 -> 681 ;
682 [label=<gini = 0.0<br/>samples = 4<br/>value = [0, 0, 4, 0]<br/>class = i>, fillcolor="#399de5ff"] ;
681 -> 682 ;
683 [label=<gini = 0.0<br/>samples = 7<br/>value = [7, 0, 0, 0]<br/>class = P>, fillcolor="#e58139ff"] ;
681 -> 683 ;
684 [label=<review_scores_rating &le; 94.5<br/>gini = 0.426<br/>samples = 26<br/>value = [8, 18, 0, 0]<br/>class = r>, fillcolor="#47e5398e"] ;
660 -> 684 ;
685 [label=<reviews_per_month &le; 1.015<br/>gini = 0.18<br/>samples = 20<br/>value = [2, 18, 0, 0]<br/>class = r>, fillcolor="#47e539e3"] ;
684 -> 685 ;
686 [label=<gini = 0.0<br/>samples = 17<br/>value = [0, 17, 0, 0]<br/>class = r>, fillcolor="#47e539ff"] ;
685 -> 686 ;
687 [label=<reviews_per_month &le; 1.085<br/>gini = 0.444<br/>samples = 3<br/>value = [2, 1, 0, 0]<br/>class = P>, fillcolor="#e581397f"] ;
685 -> 687 ;
688 [label=<gini = 0.0<br/>samples = 2<br/>value = [2, 0, 0, 0]<br/>class = P>, fillcolor="#e58139ff"] ;
687 -> 688 ;
689 [label=<gini = 0.0<br/>samples = 1<br/>value = [0, 1, 0, 0]<br/>class = r>, fillcolor="#47e539ff"] ;
687 -> 689 ;
690 [label=<gini = 0.0<br/>samples = 6<br/>value = [6, 0, 0, 0]<br/>class = P>, fillcolor="#e58139ff"] ;
684 -> 690 ;
691 [label=<review_scores_rating &le; 97.5<br/>gini = 0.561<br/>samples = 52<br/>value = [14, 31, 5, 2]<br/>class = r>, fillcolor="#47e53972"] ;
659 -> 691 ;
692 [label=<gini = 0.0<br/>samples = 13<br/>value = [0, 13, 0, 0]<br/>class = r>, fillcolor="#47e539ff"] ;
691 -> 692 ;
693 [label=<reviews_per_month &le; 0.2<br/>gini = 0.639<br/>samples = 39<br/>value = [14, 18, 5, 2]<br/>class = r>, fillcolor="#47e53929"] ;
691 -> 693 ;
694 [label=<gini = 0.0<br/>samples = 5<br/>value = [0, 5, 0, 0]<br/>class = r>, fillcolor="#47e539ff"] ;
693 -> 694 ;
695 [label=<transitTextWordsPerc &le; 0.925<br/>gini = 0.659<br/>samples = 34<br/>value = [14, 13, 5, 2]<br/>class = P>, fillcolor="#e581390c"] ;
693 -> 695 ;
696 [label=<review_scores_rating &le; 98.5<br/>gini = 0.375<br/>samples = 4<br/>value = [0, 1, 3, 0]<br/>class = i>, fillcolor="#399de5aa"] ;
695 -> 696 ;
697 [label=<gini = 0.0<br/>samples = 1<br/>value = [0, 1, 0, 0]<br/>class = r>, fillcolor="#47e539ff"] ;
696 -> 697 ;
698 [label=<gini = 0.0<br/>samples = 3<br/>value = [0, 0, 3, 0]<br/>class = i>, fillcolor="#399de5ff"] ;
696 -> 698 ;
699 [label=<transitTextWordsPerc &le; 0.976<br/>gini = 0.613<br/>samples = 30<br/>value = [14, 12, 2, 2]<br/>class = P>, fillcolor="#e581391c"] ;
695 -> 699 ;
700 [label=<reviews_per_month &le; 0.315<br/>gini = 0.298<br/>samples = 11<br/>value = [9, 2, 0, 0]<br/>class = P>, fillcolor="#e58139c6"] ;
699 -> 700 ;
701 [label=<bedrooms &le; 3.5<br/>gini = 0.48<br/>samples = 5<br/>value = [3, 2, 0, 0]<br/>class = P>, fillcolor="#e5813955"] ;
700 -> 701 ;
702 [label=<gini = 0.0<br/>samples = 2<br/>value = [0, 2, 0, 0]<br/>class = r>, fillcolor="#47e539ff"] ;
701 -> 702 ;
703 [label=<gini = 0.0<br/>samples = 3<br/>value = [3, 0, 0, 0]<br/>class = P>, fillcolor="#e58139ff"] ;
701 -> 703 ;
704 [label=<gini = 0.0<br/>samples = 6<br/>value = [6, 0, 0, 0]<br/>class = P>, fillcolor="#e58139ff"] ;
700 -> 704 ;
705 [label=<square_feet &le; 2592.074<br/>gini = 0.632<br/>samples = 19<br/>value = [5, 10, 2, 2]<br/>class = r>, fillcolor="#47e5395b"] ;
699 -> 705 ;
706 [label=<review_scores_rating &le; 99.0<br/>gini = 0.554<br/>samples = 17<br/>value = [5, 10, 0, 2]<br/>class = r>, fillcolor="#47e5396a"] ;
705 -> 706 ;
707 [label=<reviews_per_month &le; 0.24<br/>gini = 0.375<br/>samples = 4<br/>value = [3, 1, 0, 0]<br/>class = P>, fillcolor="#e58139aa"] ;
706 -> 707 ;
708 [label=<gini = 0.0<br/>samples = 1<br/>value = [0, 1, 0, 0]<br/>class = r>, fillcolor="#47e539ff"] ;
707 -> 708 ;
709 [label=<gini = 0.0<br/>samples = 3<br/>value = [3, 0, 0, 0]<br/>class = P>, fillcolor="#e58139ff"] ;
707 -> 709 ;
710 [label=<reviews_per_month &le; 0.385<br/>gini = 0.473<br/>samples = 13<br/>value = [2, 9, 0, 2]<br/>class = r>, fillcolor="#47e539a2"] ;
706 -> 710 ;
711 [label=<bedrooms &le; 3.5<br/>gini = 0.5<br/>samples = 4<br/>value = [0, 2, 0, 2]<br/>class = r>, fillcolor="#47e53900"] ;
710 -> 711 ;
712 [label=<gini = 0.0<br/>samples = 2<br/>value = [0, 0, 0, 2]<br/>class = c>, fillcolor="#d739e5ff"] ;
711 -> 712 ;
713 [label=<gini = 0.0<br/>samples = 2<br/>value = [0, 2, 0, 0]<br/>class = r>, fillcolor="#47e539ff"] ;
711 -> 713 ;
714 [label=<reviews_per_month &le; 0.665<br/>gini = 0.346<br/>samples = 9<br/>value = [2, 7, 0, 0]<br/>class = r>, fillcolor="#47e539b6"] ;
710 -> 714 ;
715 [label=<gini = 0.0<br/>samples = 3<br/>value = [0, 3, 0, 0]<br/>class = r>, fillcolor="#47e539ff"] ;
714 -> 715 ;
716 [label=<bedrooms &le; 3.5<br/>gini = 0.444<br/>samples = 6<br/>value = [2, 4, 0, 0]<br/>class = r>, fillcolor="#47e5397f"] ;
714 -> 716 ;
717 [label=<gini = 0.0<br/>samples = 3<br/>value = [0, 3, 0, 0]<br/>class = r>, fillcolor="#47e539ff"] ;
716 -> 717 ;
718 [label=<gini = 0.444<br/>samples = 3<br/>value = [2, 1, 0, 0]<br/>class = P>, fillcolor="#e581397f"] ;
716 -> 718 ;
719 [label=<gini = 0.0<br/>samples = 2<br/>value = [0, 0, 2, 0]<br/>class = i>, fillcolor="#399de5ff"] ;
705 -> 719 ;
720 [label=<bedrooms &le; 4.5<br/>gini = 0.585<br/>samples = 123<br/>value = [10, 73, 25, 15]<br/>class = r>, fillcolor="#47e5397d"] ;
622 -> 720 ;
721 [label=<transitTextWordsPerc &le; 0.952<br/>gini = 0.543<br/>samples = 100<br/>value = [10, 64, 17, 9]<br/>class = r>, fillcolor="#47e53990"] ;
720 -> 721 ;
722 [label=<transitTextWordsPerc &le; 0.804<br/>gini = 0.593<br/>samples = 33<br/>value = [3, 17, 12, 1]<br/>class = r>, fillcolor="#47e5393d"] ;
721 -> 722 ;
723 [label=<gini = 0.0<br/>samples = 8<br/>value = [0, 8, 0, 0]<br/>class = r>, fillcolor="#47e539ff"] ;
722 -> 723 ;
724 [label=<bedrooms &le; 3.5<br/>gini = 0.624<br/>samples = 25<br/>value = [3, 9, 12, 1]<br/>class = i>, fillcolor="#399de530"] ;
722 -> 724 ;
725 [label=<reviews_per_month &le; 1.827<br/>gini = 0.37<br/>samples = 9<br/>value = [0, 1, 7, 1]<br/>class = i>, fillcolor="#399de5bf"] ;
724 -> 725 ;
726 [label=<transitTextWordsPerc &le; 0.906<br/>gini = 0.219<br/>samples = 8<br/>value = [0, 1, 7, 0]<br/>class = i>, fillcolor="#399de5db"] ;
725 -> 726 ;
727 [label=<gini = 0.0<br/>samples = 5<br/>value = [0, 0, 5, 0]<br/>class = i>, fillcolor="#399de5ff"] ;
726 -> 727 ;
728 [label=<transitTextWordsPerc &le; 0.947<br/>gini = 0.444<br/>samples = 3<br/>value = [0, 1, 2, 0]<br/>class = i>, fillcolor="#399de57f"] ;
726 -> 728 ;
729 [label=<gini = 0.0<br/>samples = 1<br/>value = [0, 1, 0, 0]<br/>class = r>, fillcolor="#47e539ff"] ;
728 -> 729 ;
730 [label=<gini = 0.0<br/>samples = 2<br/>value = [0, 0, 2, 0]<br/>class = i>, fillcolor="#399de5ff"] ;
728 -> 730 ;
731 [label=<gini = 0.0<br/>samples = 1<br/>value = [0, 0, 0, 1]<br/>class = c>, fillcolor="#d739e5ff"] ;
725 -> 731 ;
